FANN_FLO_2.1
num_layers=3
learning_rate=0.700000
connection_rate=1.000000
network_type=0
learning_momentum=0.000000
training_algorithm=2
train_error_function=1
train_stop_function=0
cascade_output_change_fraction=0.010000
quickprop_decay=-0.000100
quickprop_mu=1.750000
rprop_increase_factor=1.200000
rprop_decrease_factor=0.500000
rprop_delta_min=0.000000
rprop_delta_max=50.000000
rprop_delta_zero=0.500000
cascade_output_stagnation_epochs=12
cascade_candidate_change_fraction=0.010000
cascade_candidate_stagnation_epochs=12
cascade_max_out_epochs=150
cascade_max_cand_epochs=150
cascade_num_candidate_groups=2
bit_fail_limit=3.49999994039535520000e-001
cascade_candidate_limit=1.00000000000000000000e+003
cascade_weight_multiplier=4.00000005960464480000e-001
cascade_activation_functions_count=8
cascade_activation_functions=3 5 7 8 10 11 14 15 
cascade_activation_steepnesses_count=4
cascade_activation_steepnesses=2.50000000000000000000e-001 5.00000000000000000000e-001 7.50000000000000000000e-001 1.00000000000000000000e+000 
layer_sizes=50 101 4 
scale_included=0
neurons (num_inputs, activation_function, activation_steepness)=(0, 0, 0.00000000000000000000e+000) (0, 0, 0.00000000000000000000e+000) (0, 0, 0.00000000000000000000e+000) (0, 0, 0.00000000000000000000e+000) (0, 0, 0.00000000000000000000e+000) (0, 0, 0.00000000000000000000e+000) (0, 0, 0.00000000000000000000e+000) (0, 0, 0.00000000000000000000e+000) (0, 0, 0.00000000000000000000e+000) (0, 0, 0.00000000000000000000e+000) (0, 0, 0.00000000000000000000e+000) (0, 0, 0.00000000000000000000e+000) (0, 0, 0.00000000000000000000e+000) (0, 0, 0.00000000000000000000e+000) (0, 0, 0.00000000000000000000e+000) (0, 0, 0.00000000000000000000e+000) (0, 0, 0.00000000000000000000e+000) (0, 0, 0.00000000000000000000e+000) (0, 0, 0.00000000000000000000e+000) (0, 0, 0.00000000000000000000e+000) (0, 0, 0.00000000000000000000e+000) (0, 0, 0.00000000000000000000e+000) (0, 0, 0.00000000000000000000e+000) (0, 0, 0.00000000000000000000e+000) (0, 0, 0.00000000000000000000e+000) (0, 0, 0.00000000000000000000e+000) (0, 0, 0.00000000000000000000e+000) (0, 0, 0.00000000000000000000e+000) (0, 0, 0.00000000000000000000e+000) (0, 0, 0.00000000000000000000e+000) (0, 0, 0.00000000000000000000e+000) (0, 0, 0.00000000000000000000e+000) (0, 0, 0.00000000000000000000e+000) (0, 0, 0.00000000000000000000e+000) (0, 0, 0.00000000000000000000e+000) (0, 0, 0.00000000000000000000e+000) (0, 0, 0.00000000000000000000e+000) (0, 0, 0.00000000000000000000e+000) (0, 0, 0.00000000000000000000e+000) (0, 0, 0.00000000000000000000e+000) (0, 0, 0.00000000000000000000e+000) (0, 0, 0.00000000000000000000e+000) (0, 0, 0.00000000000000000000e+000) (0, 0, 0.00000000000000000000e+000) (0, 0, 0.00000000000000000000e+000) (0, 0, 0.00000000000000000000e+000) (0, 0, 0.00000000000000000000e+000) (0, 0, 0.00000000000000000000e+000) (0, 0, 0.00000000000000000000e+000) (0, 0, 0.00000000000000000000e+000) (50, 3, 5.00000000000000000000e-001) (50, 3, 5.00000000000000000000e-001) (50, 3, 5.00000000000000000000e-001) (50, 3, 5.00000000000000000000e-001) (50, 3, 5.00000000000000000000e-001) (50, 3, 5.00000000000000000000e-001) (50, 3, 5.00000000000000000000e-001) (50, 3, 5.00000000000000000000e-001) (50, 3, 5.00000000000000000000e-001) (50, 3, 5.00000000000000000000e-001) (50, 3, 5.00000000000000000000e-001) (50, 3, 5.00000000000000000000e-001) (50, 3, 5.00000000000000000000e-001) (50, 3, 5.00000000000000000000e-001) (50, 3, 5.00000000000000000000e-001) (50, 3, 5.00000000000000000000e-001) (50, 3, 5.00000000000000000000e-001) (50, 3, 5.00000000000000000000e-001) (50, 3, 5.00000000000000000000e-001) (50, 3, 5.00000000000000000000e-001) (50, 3, 5.00000000000000000000e-001) (50, 3, 5.00000000000000000000e-001) (50, 3, 5.00000000000000000000e-001) (50, 3, 5.00000000000000000000e-001) (50, 3, 5.00000000000000000000e-001) (50, 3, 5.00000000000000000000e-001) (50, 3, 5.00000000000000000000e-001) (50, 3, 5.00000000000000000000e-001) (50, 3, 5.00000000000000000000e-001) (50, 3, 5.00000000000000000000e-001) (50, 3, 5.00000000000000000000e-001) (50, 3, 5.00000000000000000000e-001) (50, 3, 5.00000000000000000000e-001) (50, 3, 5.00000000000000000000e-001) (50, 3, 5.00000000000000000000e-001) (50, 3, 5.00000000000000000000e-001) (50, 3, 5.00000000000000000000e-001) (50, 3, 5.00000000000000000000e-001) (50, 3, 5.00000000000000000000e-001) (50, 3, 5.00000000000000000000e-001) (50, 3, 5.00000000000000000000e-001) (50, 3, 5.00000000000000000000e-001) (50, 3, 5.00000000000000000000e-001) (50, 3, 5.00000000000000000000e-001) (50, 3, 5.00000000000000000000e-001) (50, 3, 5.00000000000000000000e-001) (50, 3, 5.00000000000000000000e-001) (50, 3, 5.00000000000000000000e-001) (50, 3, 5.00000000000000000000e-001) (50, 3, 5.00000000000000000000e-001) (50, 3, 5.00000000000000000000e-001) (50, 3, 5.00000000000000000000e-001) (50, 3, 5.00000000000000000000e-001) (50, 3, 5.00000000000000000000e-001) (50, 3, 5.00000000000000000000e-001) (50, 3, 5.00000000000000000000e-001) (50, 3, 5.00000000000000000000e-001) (50, 3, 5.00000000000000000000e-001) (50, 3, 5.00000000000000000000e-001) (50, 3, 5.00000000000000000000e-001) (50, 3, 5.00000000000000000000e-001) (50, 3, 5.00000000000000000000e-001) (50, 3, 5.00000000000000000000e-001) (50, 3, 5.00000000000000000000e-001) (50, 3, 5.00000000000000000000e-001) (50, 3, 5.00000000000000000000e-001) (50, 3, 5.00000000000000000000e-001) (50, 3, 5.00000000000000000000e-001) (50, 3, 5.00000000000000000000e-001) (50, 3, 5.00000000000000000000e-001) (50, 3, 5.00000000000000000000e-001) (50, 3, 5.00000000000000000000e-001) (50, 3, 5.00000000000000000000e-001) (50, 3, 5.00000000000000000000e-001) (50, 3, 5.00000000000000000000e-001) (50, 3, 5.00000000000000000000e-001) (50, 3, 5.00000000000000000000e-001) (50, 3, 5.00000000000000000000e-001) (50, 3, 5.00000000000000000000e-001) (50, 3, 5.00000000000000000000e-001) (50, 3, 5.00000000000000000000e-001) (50, 3, 5.00000000000000000000e-001) (50, 3, 5.00000000000000000000e-001) (50, 3, 5.00000000000000000000e-001) (50, 3, 5.00000000000000000000e-001) (50, 3, 5.00000000000000000000e-001) (50, 3, 5.00000000000000000000e-001) (50, 3, 5.00000000000000000000e-001) (50, 3, 5.00000000000000000000e-001) (50, 3, 5.00000000000000000000e-001) (50, 3, 5.00000000000000000000e-001) (50, 3, 5.00000000000000000000e-001) (50, 3, 5.00000000000000000000e-001) (50, 3, 5.00000000000000000000e-001) (50, 3, 5.00000000000000000000e-001) (50, 3, 5.00000000000000000000e-001) (50, 3, 5.00000000000000000000e-001) (50, 3, 5.00000000000000000000e-001) (50, 3, 5.00000000000000000000e-001) (50, 3, 5.00000000000000000000e-001) (0, 3, 0.00000000000000000000e+000) (101, 3, 5.00000000000000000000e-001) (101, 3, 5.00000000000000000000e-001) (101, 3, 5.00000000000000000000e-001) (0, 3, 0.00000000000000000000e+000) 
connections (connected_to_neuron, weight)=(0, 2.29919441044330600000e-002) (1, -1.22756898403167720000e+000) (2, 3.11270263046026230000e-002) (3, -1.19575142860412600000e+000) (4, -1.19365787506103520000e+000) (5, -1.17159366607666020000e+000) (6, -1.12642157077789310000e+000) (7, -1.08517396450042720000e+000) (8, 1.22943170368671420000e-001) (9, 5.06170466542243960000e-002) (10, 1.47632677108049390000e-002) (11, 7.91512988507747650000e-003) (12, 8.99149179458618160000e-002) (13, -5.79321742057800290000e-001) (14, -1.90307483077049260000e-001) (15, -4.94910150766372680000e-001) (16, 7.20194652676582340000e-002) (17, 1.21104316785931590000e-002) (18, 3.13677564263343810000e-002) (19, -1.95767700672149660000e-001) (20, -4.96423810720443730000e-001) (21, -2.92962491512298580000e-001) (22, -5.97620129585266110000e-001) (23, 1.85368526726961140000e-002) (24, 4.47747051715850830000e-001) (25, -5.47382116317749020000e-001) (26, -5.09381592273712160000e-001) (27, -1.14742374420166020000e+000) (28, -1.73925638198852540000e-001) (29, 1.31842091679573060000e-001) (30, 9.56726744771003720000e-002) (31, 3.86343263089656830000e-002) (32, 9.63440611958503720000e-002) (33, 1.18368363380432130000e+000) (34, -1.56329199671745300000e-001) (35, -3.07989329099655150000e-001) (36, 1.19188678264617920000e+000) (37, 1.21421957015991210000e+000) (38, 1.29221642017364500000e+000) (39, 6.07758820056915280000e-001) (40, 3.15250903367996220000e-001) (41, -5.92072010040283200000e-001) (42, -1.20880687236785890000e+000) (43, 2.02716156840324400000e-001) (44, 1.51593610644340520000e-001) (45, -9.76065080612897870000e-003) (46, 4.82715703547000890000e-002) (47, -3.76973897218704220000e-002) (48, -5.58411121368408200000e-001) (49, 3.70972342789173130000e-002) (0, -2.25830078125000000000e-003) (1, -2.64873094856739040000e-002) (2, -2.88079261779785160000e-001) (3, 5.94807080924510960000e-002) (4, 8.97114351391792300000e-002) (5, -3.48926475271582600000e-003) (6, -1.76494158804416660000e-002) (7, -2.16615162789821620000e-002) (8, -4.25430163741111760000e-002) (9, -5.98220750689506530000e-002) (10, 1.93381384015083310000e-002) (11, 3.09296846389770510000e-002) (12, 6.48976713418960570000e-002) (13, -3.91290821135044100000e-002) (14, -3.57690036296844480000e-001) (15, -8.25167596340179440000e-002) (16, 1.20950005948543550000e-001) (17, 1.49990558624267580000e-001) (18, 9.61054444313049320000e-001) (19, 2.53652453422546390000e-001) (20, 6.08105286955833440000e-002) (21, -2.76476681232452390000e-001) (22, -2.01207213103771210000e-002) (23, -8.97551886737346650000e-003) (24, 1.31102502346038820000e-001) (25, -2.22549736499786380000e-002) (26, -5.49371801316738130000e-002) (27, -7.73153901100158690000e-002) (28, -2.61254519224166870000e-001) (29, -1.32339354604482650000e-002) (30, 2.52747423946857450000e-002) (31, -2.47961059212684630000e-001) (32, -7.62320915237069130000e-003) (33, -4.20602932572364810000e-002) (34, -3.28942477703094480000e-001) (35, -3.96270334720611570000e-001) (36, 1.21802585199475290000e-002) (37, -2.15978622436523440000e-001) (38, -4.63963579386472700000e-003) (39, 8.77671420574188230000e-001) (40, 9.49268579483032230000e-001) (41, 4.24206405878067020000e-002) (42, 1.70768892765045170000e+000) (43, -5.02456501126289370000e-002) (44, 8.83637461811304090000e-003) (45, 1.14314951002597810000e-001) (46, 3.03559564054012300000e-002) (47, 1.51933804154396060000e-001) (48, 1.28705382347106930000e-001) (49, 2.46582850813865660000e-002) (0, 4.73999045789241790000e-002) (1, 1.72067105770111080000e+000) (2, -1.20324039459228520000e+000) (3, 1.61465907096862790000e+000) (4, 1.80196988582611080000e+000) (5, 1.67853236198425290000e+000) (6, 1.60317838191986080000e+000) (7, 1.65677952766418460000e+000) (8, -2.02018439769744870000e-001) (9, -1.79765030741691590000e-001) (10, -3.87929156422615050000e-002) (11, -1.00682545453310010000e-002) (12, 1.41026750206947330000e-001) (13, 1.57210856676101680000e-001) (14, -1.18696844577789310000e+000) (15, -6.26323446631431580000e-002) (16, 1.06330975890159610000e-001) (17, 3.95157933235168460000e-002) (18, 1.72485196590423580000e+000) (19, 1.76036834716796880000e+000) (20, 1.96331962943077090000e-001) (21, -1.15789747238159180000e+000) (22, 4.14317101240158080000e-002) (23, 1.90394699573516850000e-001) (24, 6.84777945280075070000e-002) (25, 1.58259302377700810000e-001) (26, 1.68194115161895750000e-001) (27, 1.69810020923614500000e+000) (28, -1.13404488563537600000e+000) (29, -1.61289691925048830000e-001) (30, -7.38102048635482790000e-002) (31, -1.27933907508850100000e+000) (32, -4.32926267385482790000e-002) (33, -1.02942287921905520000e-001) (34, -4.27001565694808960000e-001) (35, -1.21978712081909180000e+000) (36, -1.08876895904541020000e+000) (37, -1.09979188442230220000e+000) (38, -7.82352611422538760000e-002) (39, 1.68957364559173580000e+000) (40, 1.73746180534362790000e+000) (41, 1.85174733400344850000e-001) (42, 1.69699549674987790000e+000) (43, -1.65391251444816590000e-001) (44, -2.05497443675994870000e-001) (45, 1.80735513567924500000e-002) (46, -1.16049677133560180000e-001) (47, 1.54277473688125610000e-001) (48, 6.40712231397628780000e-002) (49, -6.76273405551910400000e-002) (0, 5.63171394169330600000e-002) (1, -1.23786568641662600000e+000) (2, -1.18142652511596680000e+000) (3, -1.27955877780914310000e+000) (4, -1.14766788482666020000e+000) (5, -1.10903263092041020000e+000) (6, -1.26818180084228520000e+000) (7, -7.84909352660179140000e-005) (8, 4.38937172293663020000e-002) (9, -2.62897461652755740000e-002) (10, 5.33103756606578830000e-002) (11, 3.35946798324584960000e-001) (12, 2.70523250102996830000e-001) (13, 3.12479026615619660000e-002) (14, -1.21350657939910890000e+000) (15, -2.11798064410686490000e-002) (16, 2.33059868216514590000e-001) (17, 3.56472939252853390000e-001) (18, 3.46151888370513920000e-001) (19, 3.82394552230834960000e-001) (20, -3.64470407366752620000e-002) (21, -1.27814280986785890000e+000) (22, -1.66040658950805660000e-001) (23, 3.75827193260192870000e-001) (24, 2.27896302938461300000e-001) (25, -9.23592448234558110000e-002) (26, -5.35909682512283330000e-002) (27, -4.34321202337741850000e-002) (28, -1.08380687236785890000e+000) (29, 5.81271201372146610000e-002) (30, 2.69348710775375370000e-001) (31, -2.70762383937835690000e-001) (32, 4.04348909854888920000e-001) (33, 3.41232448816299440000e-001) (34, -1.16966497898101810000e+000) (35, -1.17300355434417720000e+000) (36, -3.11481803655624390000e-001) (37, -3.84873688220977780000e-001) (38, 3.58334511518478390000e-001) (39, 2.75412172079086300000e-001) (40, 2.44693174958229060000e-001) (41, -3.73320579528808590000e-002) (42, 3.56240987777709960000e-001) (43, -6.11660853028297420000e-002) (44, -5.41584119200706480000e-002) (45, 9.89951938390731810000e-002) (46, 4.13943648338317870000e-001) (47, 3.87570351362228390000e-001) (48, -6.15743696689605710000e-002) (49, 2.96210259199142460000e-001) (0, 8.51196274161338810000e-002) (1, -1.13413643836975100000e+000) (2, 1.77374112606048580000e+000) (3, -1.10315501689910890000e+000) (4, -1.27125191688537600000e+000) (5, -1.09480535984039310000e+000) (6, -1.22236275672912600000e+000) (7, -1.19979190826416020000e+000) (8, 1.96333676576614380000e-001) (9, 3.38399142026901250000e-001) (10, 1.28255542367696760000e-002) (11, -9.78160202503204350000e-002) (12, -2.75709331035614010000e-002) (13, -2.59201049804687500000e-001) (14, 4.10849153995513920000e-001) (15, -5.69231510162353520000e-002) (16, -1.08094923198223110000e-001) (17, -9.07690376043319700000e-002) (18, -1.17629945278167720000e+000) (19, -1.19468939304351810000e+000) (20, -3.43362390995025630000e-001) (21, 2.18301564455032350000e-001) (22, -1.26100391149520870000e-001) (23, -1.14259466528892520000e-001) (24, 6.74287453293800350000e-002) (25, -3.15633714199066160000e-001) (26, -2.11886197328567500000e-001) (27, -1.10576725006103520000e+000) (28, 3.21768343448638920000e-001) (29, 3.07674020528793330000e-001) (30, 1.53945326805114750000e-001) (31, 3.67169380187988280000e-001) (32, 7.48376771807670590000e-002) (33, 2.65932083129882810000e-001) (34, 1.26041352748870850000e-001) (35, 3.36941689252853390000e-001) (36, 3.65266412496566770000e-001) (37, 1.69863736629486080000e+000) (38, 1.46927371621131900000e-001) (39, -1.18328189849853520000e+000) (40, -1.11441600322723390000e+000) (41, -1.27680611610412600000e+000) (42, -1.25555980205535890000e+000) (43, 1.97554379701614380000e-001) (44, 2.03004822134971620000e-001) (45, 4.15856158360838890000e-003) (46, -9.70469713211059570000e-002) (47, -4.47157099843025210000e-002) (48, -1.91671758890151980000e-001) (49, 1.56295180320739750000e-001) (0, -6.39221221208572390000e-002) (1, 2.60129630565643310000e-001) (2, -1.11307930946350100000e+000) (3, 8.87368097901344300000e-002) (4, 1.09500966966152190000e-001) (5, 2.50223636627197270000e-001) (6, 1.14615716040134430000e-001) (7, 1.61617279052734380000e+000) (8, -5.26900850236415860000e-002) (9, -9.13253352046012880000e-002) (10, 7.14780390262603760000e-002) (11, 1.10524185001850130000e-001) (12, 2.14221291244030000000e-002) (13, 6.75938352942466740000e-002) (14, -3.65059167146682740000e-001) (15, 6.56861737370491030000e-002) (16, 1.52432754635810850000e-001) (17, 1.50803118944168090000e-001) (18, 1.63842618465423580000e+000) (19, 1.73921966552734370000e+000) (20, 5.65159507095813750000e-002) (21, -4.36690002679824830000e-001) (22, -9.84495803713798520000e-002) (23, 1.62918582558631900000e-001) (24, 7.09578618407249450000e-002) (25, 8.89232605695724490000e-002) (26, 2.30679735541343690000e-001) (27, 1.84007510542869570000e-001) (28, -3.23298960924148560000e-001) (29, -2.40584947168827060000e-002) (30, 4.61661405861377720000e-002) (31, -1.27577459812164310000e+000) (32, -8.74642357230186460000e-002) (33, -5.34108839929103850000e-002) (34, -3.26089620590209960000e-001) (35, -2.87953466176986690000e-001) (36, -1.08846378326416020000e+000) (37, -1.12484693527221680000e+000) (38, -1.46410152316093440000e-001) (39, 1.30703568458557130000e+000) (40, 1.76417696475982670000e+000) (41, 1.76565989851951600000e-001) (42, 1.69424891471862790000e+000) (43, -1.46977186203002930000e-001) (44, -7.93563500046730040000e-002) (45, -9.85353812575340270000e-002) (46, -3.67902554571628570000e-002) (47, 1.14415287971496580000e-001) (48, 9.84165892004966740000e-002) (49, 4.48905043303966520000e-002) (0, 4.36889640986919400000e-002) (1, 4.56964820623397830000e-001) (2, 1.59693908691406250000e+000) (3, 3.59656482934951780000e-001) (4, 5.01569271087646480000e-001) (5, 3.51660877466201780000e-001) (6, 4.15619581937789920000e-001) (7, -1.07486926019191740000e-001) (8, 1.45396441221237180000e-001) (9, 1.20439760386943820000e-001) (10, -1.66482269763946530000e-001) (11, -3.35576206445693970000e-001) (12, -2.99394547939300540000e-001) (13, -2.99492210149765010000e-001) (14, 1.28190147876739500000e+000) (15, 4.63560849428176880000e-001) (16, -6.66191816329956050000e-001) (17, -6.55284762382507320000e-001) (18, -6.65788888931274410000e-001) (19, -6.24449849128723140000e-001) (20, -3.21062028408050540000e-001) (21, 1.21017909049987790000e+000) (22, 5.38902580738067630000e-001) (23, -5.25389790534973140000e-001) (24, -4.50294345617294310000e-001) (25, 2.56401356309652330000e-002) (26, -2.26225629448890690000e-001) (27, 2.86561340093612670000e-001) (28, 1.25323331356048580000e+000) (29, 4.25277873873710630000e-002) (30, -1.84973895549774170000e-001) (31, 1.36722254753112790000e+000) (32, -1.47199243307113650000e-001) (33, -1.84807837009429930000e-001) (34, 8.22325229644775390000e-001) (35, 1.31218707561492920000e+000) (36, 1.26921832561492920000e+000) (37, 1.33429408073425290000e+000) (38, -1.14190161228179930000e-001) (39, -1.22659242153167720000e+000) (40, -1.23599183559417720000e+000) (41, -1.44387528300285340000e-001) (42, -1.10562694072723390000e+000) (43, 3.72482463717460630000e-002) (44, 3.01077179610729220000e-002) (45, -2.78396278619766240000e-001) (46, -2.69383579492568970000e-001) (47, -3.34556907415390010000e-001) (48, -2.48649924993515010000e-001) (49, -1.49268329143524170000e-001) (0, -7.37304706126451490000e-003) (1, 1.73896324634552000000e+000) (2, -1.88328653573989870000e-001) (3, 1.65613245964050290000e+000) (4, 1.70438075065612790000e+000) (5, 1.60662686824798580000e+000) (6, 1.76544642448425290000e+000) (7, 1.77266693115234370000e+000) (8, -9.78739038109779360000e-002) (9, -1.56669065356254580000e-001) (10, -1.15687876939773560000e-001) (11, -4.48223687708377840000e-002) (12, -7.93340057134628300000e-002) (13, 1.56184718012809750000e-001) (14, 1.11143350601196290000e-001) (15, 7.67869874835014340000e-002) (16, 5.68892173469066620000e-002) (17, 2.72178407758474350000e-002) (18, 2.67264824360609050000e-002) (19, -8.09960626065731050000e-003) (20, 1.20663285255432130000e+000) (21, 6.26814514398574830000e-002) (22, 4.07796353101730350000e-002) (23, 2.46077217161655430000e-002) (24, 2.37456783652305600000e-002) (25, 1.51107892394065860000e-001) (26, 1.93451195955276490000e-001) (27, 1.63507997989654540000e+000) (28, 3.48311029374599460000e-002) (29, -2.03055784106254580000e-001) (30, -7.01639279723167420000e-002) (31, -2.76365756988525390000e-001) (32, -5.79813122749328610000e-002) (33, -2.44364365935325620000e-001) (34, 1.38340974226593970000e-002) (35, 3.53743173182010650000e-002) (36, -3.22253018617630000000e-001) (37, -2.67791390419006350000e-001) (38, -5.53018748760223390000e-002) (39, 7.10712894797325130000e-002) (40, -6.48939311504364010000e-002) (41, 1.25585782527923580000e+000) (42, 1.75027918815612790000e+000) (43, -1.20615579187870030000e-001) (44, -1.18204690515995030000e-001) (45, -1.43281906843185420000e-001) (46, -1.21073581278324130000e-001) (47, 1.33295683190226550000e-002) (48, 2.26033344864845280000e-001) (49, -1.42667606472969060000e-001) (0, 2.88085942156612870000e-003) (1, 1.67613375186920170000e+000) (2, -6.46544218063354490000e-001) (3, 1.75196373462677000000e+000) (4, 1.76660001277923580000e+000) (5, 1.68740689754486080000e+000) (6, 1.77099454402923580000e+000) (7, 1.66182708740234370000e+000) (8, -3.85308444499969480000e-001) (9, -2.70031362771987920000e-001) (10, -9.76275801658630370000e-002) (11, -1.93184241652488710000e-001) (12, -1.61714497953653340000e-002) (13, 1.43323630094528200000e-001) (14, -2.22856253385543820000e-001) (15, 5.51566146314144130000e-002) (16, -1.16341486573219300000e-002) (17, 1.43138796091079710000e-001) (18, 1.49245917797088620000e+000) (19, 1.58294987678527830000e+000) (20, 1.98721557855606080000e-001) (21, -2.83708274364471440000e-001) (22, 1.32555276155471800000e-001) (23, 4.55618910491466520000e-002) (24, -9.61566343903541560000e-002) (25, 8.98995399475097660000e-002) (26, 1.99909344315528870000e-001) (27, 5.37306368350982670000e-001) (28, -2.48259082436561580000e-001) (29, -3.24871450662612920000e-001) (30, -2.12424680590629580000e-001) (31, -3.27196717262268070000e-001) (32, -2.07071885466575620000e-001) (33, -2.37814038991928100000e-001) (34, -2.72173702716827390000e-001) (35, -2.47581586241722110000e-001) (36, -4.51865673065185550000e-001) (37, -4.60917174816131590000e-001) (38, -2.47745707631111150000e-001) (39, 1.12484127283096310000e-001) (40, 1.62469184398651120000e+000) (41, 1.10751576721668240000e-001) (42, 1.78200531005859370000e+000) (43, -3.16064059734344480000e-001) (44, -3.93938809633255000000e-001) (45, -1.96852460503578190000e-001) (46, -1.24379292130470280000e-001) (47, -1.10867477953433990000e-001) (48, 1.16925925016403200000e-001) (49, -9.18741449713706970000e-002) (0, 3.79211418330669400000e-002) (1, -3.01792435348033910000e-002) (2, -4.14379298686981200000e-001) (3, 2.76576653122901920000e-002) (4, -2.06516571342945100000e-002) (5, -4.73789535462856290000e-002) (6, -5.97690716385841370000e-002) (7, 1.77132077515125270000e-002) (8, 2.96153593808412550000e-002) (9, 8.08055549860000610000e-002) (10, 2.55830101668834690000e-002) (11, 2.19331048429012300000e-002) (12, -3.35520356893539430000e-002) (13, 1.02974005043506620000e-001) (14, -4.60808753967285160000e-001) (15, 6.80561289191246030000e-002) (16, 3.27847264707088470000e-002) (17, 1.03713668882846830000e-001) (18, 8.27509522438049320000e-001) (19, 2.22523853182792660000e-001) (20, 1.31643638014793400000e-002) (21, -3.19225519895553590000e-001) (22, -9.36382114887237550000e-002) (23, 6.27651959657669070000e-002) (24, 6.31204396486282350000e-002) (25, 3.36164161562919620000e-002) (26, 1.68411843478679660000e-002) (27, -1.95651184767484660000e-002) (28, -3.02038013935089110000e-001) (29, 9.33910086750984190000e-002) (30, -5.75754269957542420000e-002) (31, 4.69458885490894320000e-002) (32, -3.73808592557907100000e-002) (33, 1.24910987913608550000e-001) (34, 4.33326102793216710000e-002) (35, -3.55370551347732540000e-001) (36, 3.27951386570930480000e-002) (37, -1.29857808351516720000e-001) (38, 3.46029996871948240000e-002) (39, 8.34281623363494870000e-001) (40, 8.13831567764282230000e-001) (41, -1.93612650036811830000e-002) (42, 1.74394381046295170000e+000) (43, -7.34974220395088200000e-002) (44, 8.49437415599823000000e-002) (45, 9.76289212703704830000e-002) (46, 1.45895496010780330000e-001) (47, 9.38954800367355350000e-002) (48, -3.62349934875965120000e-002) (49, 1.19249530136585240000e-001) (0, 1.11328130587935450000e-002) (1, -1.22263133525848390000e+000) (2, -2.87694931030273440000e-001) (3, -1.26260316371917720000e+000) (4, -1.08652901649475100000e+000) (5, -1.09193670749664310000e+000) (6, -1.13059031963348390000e+000) (7, -1.09071600437164310000e+000) (8, 5.37301190197467800000e-002) (9, -5.96494749188423160000e-002) (10, -3.66608658805489540000e-003) (11, -1.17166256532073020000e-002) (12, 7.97506719827651980000e-002) (13, -2.44888782501220700000e-001) (14, -4.30253148078918460000e-001) (15, -3.58965516090393070000e-001) (16, 1.27913028001785280000e-001) (17, 1.02978050708770750000e-001) (18, 2.21602350473403930000e-001) (19, -3.88105139136314390000e-002) (20, -2.07944214344024660000e-001) (21, -4.95395958423614500000e-001) (22, -3.09093683958053590000e-001) (23, 1.36483147740364070000e-001) (24, 1.27728760242462160000e-001) (25, -6.44383579492568970000e-002) (26, -1.79593384265899660000e-001) (27, -6.05438590049743650000e-001) (28, -4.76255327463150020000e-001) (29, 4.61739674210548400000e-002) (30, -3.51760946214199070000e-002) (31, -2.33892455697059630000e-001) (32, 2.71656103432178500000e-002) (33, 1.59330749511718750000e+000) (34, -4.50493812561035160000e-001) (35, -3.96360337734222410000e-001) (36, 7.50855505466461180000e-001) (37, 1.93431992083787920000e-002) (38, 2.94985473155975340000e-001) (39, 1.80261075496673580000e+000) (40, 1.57956331968307500000e-001) (41, -1.58438593149185180000e-001) (42, -1.92422345280647280000e-001) (43, -4.04471270740032200000e-002) (44, 9.20778214931488040000e-002) (45, -5.30496314167976380000e-002) (46, -2.10916269570589070000e-002) (47, 1.00850522518157960000e-001) (48, -1.48312866687774660000e-001) (49, -7.36238202080130580000e-003) (0, -8.73840376734733580000e-002) (1, 1.74927818775177000000e+000) (2, -1.18973338603973390000e+000) (3, 1.75995934009552000000e+000) (4, 1.75723111629486080000e+000) (5, 1.79337000846862790000e+000) (6, 1.65453338623046870000e+000) (7, 1.70205533504486080000e+000) (8, -1.09531618654727940000e-001) (9, -1.50431260466575620000e-001) (10, -1.50569498538970950000e-001) (11, 4.69022653996944430000e-002) (12, 7.20162466168403630000e-002) (13, 1.84185221791267400000e-001) (14, -1.15974676609039310000e+000) (15, -2.11946442723274230000e-001) (16, 7.44932964444160460000e-002) (17, 1.05226941406726840000e-001) (18, 1.67671966552734370000e+000) (19, 1.63557589054107670000e+000) (20, 2.07562133669853210000e-001) (21, -1.22670841217041020000e+000) (22, -4.61139120161533360000e-002) (23, 8.02916362881660460000e-002) (24, 1.25142522156238560000e-002) (25, 1.51304140686988830000e-001) (26, 6.73517510294914250000e-002) (27, 1.78608858585357670000e+000) (28, -1.27421212196350100000e+000) (29, -2.52256214618682860000e-001) (30, -1.79182782769203190000e-001) (31, -4.68961626291275020000e-001) (32, -2.16725483536720280000e-001) (33, -1.59639313817024230000e-001) (34, -4.18059736490249630000e-001) (35, -1.26147401332855220000e+000) (36, -7.66762256622314450000e-001) (37, -1.08441722393035890000e+000) (38, -1.32753327488899230000e-001) (39, 1.36741781234741210000e+000) (40, 1.63615572452545170000e+000) (41, 2.07867309451103210000e-001) (42, 1.65980076789855960000e+000) (43, -2.31046512722969060000e-001) (44, -6.23941570520401000000e-002) (45, -2.09552105516195300000e-002) (46, 8.44266861677169800000e-002) (47, 1.57801166176795960000e-001) (48, 2.00237914919853210000e-001) (49, -6.56512603163719180000e-002) (0, -2.07885745912790300000e-002) (1, 1.76255333423614500000e+000) (2, 5.35100102424621580000e-001) (3, 1.77214813232421870000e+000) (4, 1.79514002799987790000e+000) (5, 1.62904512882232670000e+000) (6, 1.78072965145111080000e+000) (7, 1.77944183349609380000e+000) (8, -3.30920010805130000000e-001) (9, -2.03216522932052610000e-001) (10, -3.79693210124969480000e-001) (11, -3.55175375938415530000e-001) (12, -3.58971774578094480000e-001) (13, -2.72552892565727230000e-002) (14, 6.43663287162780760000e-001) (15, 2.46895685791969300000e-001) (16, -2.90789425373077390000e-001) (17, -3.80535483360290530000e-001) (18, -4.04638111591339110000e-001) (19, -2.34229788184165950000e-001) (20, 1.48412838578224180000e-001) (21, 6.16777360439300540000e-001) (22, 1.48777946829795840000e-001) (23, -3.35613638162612920000e-001) (24, -3.51043313741683960000e-001) (25, 1.21703699231147770000e-001) (26, -5.34820966422557830000e-002) (27, 5.95522999763488770000e-001) (28, 6.09636247158050540000e-001) (29, -3.32720547914505000000e-001) (30, -2.90789425373077390000e-001) (31, 5.04251122474670410000e-001) (32, -3.66485208272933960000e-001) (33, -3.26830506324768070000e-001) (34, 5.08800685405731200000e-001) (35, 6.07658684253692630000e-001) (36, 6.38256315141916280000e-003) (37, 8.67709815502166750000e-002) (38, -3.75072836875915530000e-001) (39, -5.12787282466888430000e-001) (40, -4.51458156108856200000e-001) (41, 1.58782735466957090000e-001) (42, -2.40410536527633670000e-001) (43, -3.99456381797790530000e-001) (44, -1.94988995790481570000e-001) (45, -3.41045737266540530000e-001) (46, -3.74639511108398440000e-001) (47, -3.49285483360290530000e-001) (48, 6.76726922392845150000e-002) (49, -3.68499338626861570000e-001) (0, -9.11071822047233580000e-002) (1, 1.70570528507232670000e+000) (2, -1.14907789230346680000e+000) (3, 1.67105555534362790000e+000) (4, 1.63609468936920170000e+000) (5, 1.78636324405670170000e+000) (6, 1.78873133659362790000e+000) (7, 1.75400233268737790000e+000) (8, -1.73774480819702150000e-001) (9, -2.14856639504432680000e-002) (10, 9.34612154960632320000e-002) (11, 8.33630487322807310000e-002) (12, 1.19707785546779630000e-001) (13, 1.81561067700386050000e-001) (14, -1.10259950160980220000e+000) (15, -8.73289536684751510000e-003) (16, 1.18344649672508240000e-001) (17, 1.49937078356742860000e-001) (18, 1.64447474479675290000e+000) (19, 1.79801487922668460000e+000) (20, 8.16684439778327940000e-002) (21, -1.20905709266662600000e+000) (22, -7.60639309883117680000e-002) (23, 1.32309466600418090000e-001) (24, 1.73418715596199040000e-001) (25, 9.59718674421310420000e-002) (26, 8.18302780389785770000e-002) (27, 1.78575289249420170000e+000) (28, -1.26985418796539310000e+000) (29, -1.84162661433219910000e-001) (30, -9.52022969722747800000e-002) (31, -5.30968368053436280000e-001) (32, 3.60355153679847720000e-002) (33, -5.37427403032779690000e-002) (34, -5.60204267501831050000e-001) (35, -1.19258975982666020000e+000) (36, -5.65019965171813960000e-001) (37, -1.25555980205535890000e+000) (38, -1.26460567116737370000e-001) (39, 3.16640913486480710000e-001) (40, 1.60427701473236080000e+000) (41, 1.72964796423912050000e-001) (42, 1.69751429557800290000e+000) (43, -1.30323559045791630000e-001) (44, -6.85864761471748350000e-002) (45, -3.04828714579343800000e-002) (46, -2.46457988396286960000e-003) (47, 1.04182353243231770000e-002) (48, 1.34097620844841000000e-001) (49, -1.33971810340881350000e-001) (0, 2.41088867187500000000e-003) (1, -1.11110782623291020000e+000) (2, 1.32581019401550290000e+000) (3, -1.27016544342041020000e+000) (4, -1.12548172473907470000e+000) (5, -1.23317813873291020000e+000) (6, -1.20370435714721680000e+000) (7, -1.16762030124664310000e+000) (8, 3.25781464576721190000e-001) (9, 4.70044136047363280000e-001) (10, -2.47292444109916690000e-001) (11, -4.25473660230636600000e-001) (12, -3.41912716627120970000e-001) (13, -5.12140393257141110000e-001) (14, 9.70718324184417720000e-001) (15, 8.50049108266830440000e-002) (16, -5.23804187774658200000e-001) (17, -4.72485870122909550000e-001) (18, -4.80334967374801640000e-001) (19, -1.10945987701416020000e+000) (20, -5.97510218620300290000e-001) (21, 1.00630187988281250000e+000) (22, 7.58208036422729490000e-002) (23, -5.62299132347106930000e-001) (24, -2.71561354398727420000e-001) (25, -5.25513172149658200000e-001) (26, -5.12665271759033200000e-001) (27, -1.18120062351226810000e+000) (28, 1.13793027400970460000e+000) (29, 4.24682855606079100000e-001) (30, 1.15075623616576190000e-002) (31, 1.13731372356414790000e+000) (32, 5.41367791593074800000e-002) (33, -4.95744273066520690000e-002) (34, 6.00878179073333740000e-001) (35, 1.01659238338470460000e+000) (36, 1.15462338924407960000e+000) (37, 1.02331233024597170000e+000) (38, -1.06727527454495430000e-002) (39, -5.91449499130249020000e-001) (40, -6.12573742866516110000e-001) (41, -5.21912097930908200000e-001) (42, -1.22640931606292720000e+000) (43, 4.06689643859863280000e-001) (44, 4.29022431373596190000e-001) (45, -1.75350293517112730000e-001) (46, -4.49985414743423460000e-001) (47, -4.56323087215423580000e-001) (48, -4.63202446699142460000e-001) (49, -7.46008306741714480000e-002) (0, 2.48352047055959700000e-002) (1, 1.62978363037109370000e+000) (2, 1.69837486743927000000e+000) (3, 1.71474456787109380000e+000) (4, 1.66593480110168460000e+000) (5, 1.71139979362487790000e+000) (6, 1.67817842960357670000e+000) (7, 9.51716065406799320000e-001) (8, -4.97651891782879830000e-003) (9, -1.13100290298461910000e-001) (10, 6.38223141431808470000e-002) (11, 4.20927582308650020000e-003) (12, -1.68478563427925110000e-002) (13, -1.46401552483439450000e-002) (14, 1.62268519401550290000e+000) (15, 3.80752891302108760000e-001) (16, -4.31743979454040530000e-001) (17, -4.16784286499023440000e-001) (18, -1.25884950160980220000e+000) (19, -1.52881309390068050000e-001) (20, 3.20346988737583160000e-002) (21, 1.78954315185546870000e+000) (22, 1.86243489384651180000e-001) (23, -3.60570937395095830000e-001) (24, -3.40203493833541870000e-001) (25, 2.91402582079172130000e-002) (26, 3.35165783762931820000e-002) (27, 8.94555211067199710000e-001) (28, 1.69889366626739500000e+000) (29, -6.08542002737522130000e-002) (30, 1.87270734459161760000e-002) (31, 2.32228681445121770000e-001) (32, -4.41330336034297940000e-002) (33, -4.31540071964263920000e-001) (34, 9.87695455551147460000e-001) (35, 1.74318087100982670000e+000) (36, 1.24155692756175990000e-002) (37, 1.17632888257503510000e-001) (38, -2.87100374698638920000e-001) (39, -1.16896307468414310000e+000) (40, -1.27244818210601810000e+000) (41, 8.71067345142364500000e-002) (42, -7.34123736619949340000e-002) (43, -8.92355591058731080000e-002) (44, 4.69705052673816680000e-002) (45, -1.08461618423461910000e-001) (46, 7.91410636156797410000e-003) (47, -2.04428229480981830000e-002) (48, 6.93991556763648990000e-002) (49, -7.55353132262825970000e-004) (0, -5.75073249638080600000e-002) (1, 6.95230007171630860000e-001) (2, 1.66327357292175290000e+000) (3, 6.10769629478454590000e-001) (4, 7.10256934165954590000e-001) (5, 5.95309376716613770000e-001) (6, 6.73513770103454590000e-001) (7, 1.39725908637046810000e-001) (8, 2.33609318733215330000e-001) (9, 1.29617616534233090000e-001) (10, 3.78150753676891330000e-002) (11, -8.89991745352745060000e-002) (12, -1.41020461916923520000e-001) (13, 8.03299695253372190000e-002) (14, 1.78055262565612790000e+000) (15, 2.32031255960464480000e-001) (16, -6.74571871757507320000e-001) (17, -6.88353657722473140000e-001) (18, -1.17263126373291020000e+000) (19, -5.48345088958740230000e-001) (20, 3.18655110895633700000e-002) (21, 1.73979341983795170000e+000) (22, 3.78497302532196040000e-001) (23, -6.56389474868774410000e-001) (24, -2.73750126361846920000e-001) (25, 1.58591791987419130000e-001) (26, 6.37091100215911870000e-002) (27, 1.33693933486938480000e-001) (28, 1.76928555965423580000e+000) (29, 2.59915471076965330000e-001) (30, 4.70802150666713710000e-002) (31, 6.75395488739013670000e-001) (32, 5.93177638947963710000e-002) (33, -2.31487631797790530000e-001) (34, 1.69317471981048580000e+000) (35, 1.60488736629486080000e+000) (36, 1.96173116564750670000e-001) (37, 4.29489970207214360000e-001) (38, -1.12440763041377070000e-002) (39, -1.26475775241851810000e+000) (40, -1.11638128757476810000e+000) (41, -3.34556959569454190000e-002) (42, -1.14834547042846680000e+000) (43, 2.01248496770858760000e-001) (44, 1.66971132159233090000e-001) (45, -3.32054309546947480000e-002) (46, -8.44703614711761470000e-002) (47, 2.73389238864183430000e-002) (48, 5.79809509217739110000e-002) (49, 9.50721502304077150000e-002) (0, -6.82189986109733580000e-002) (1, 3.93386900424957280000e-001) (2, 1.66994476318359370000e+000) (3, 3.34097385406494140000e-001) (4, 4.96579021215438840000e-001) (5, 3.35134983062744140000e-001) (6, 3.27688694000244140000e-001) (7, 1.08619093894958500000e-001) (8, 1.09020069241523740000e-001) (9, -2.55685485899448390000e-002) (10, 4.93634641170501710000e-002) (11, -5.31091503798961640000e-002) (12, -9.14648920297622680000e-003) (13, 4.64120954275131230000e-002) (14, 1.34071493148803710000e+000) (15, 1.18990018963813780000e-001) (16, -1.17551219463348390000e+000) (17, -5.42694568634033200000e-001) (18, -1.14806461334228520000e+000) (19, -1.15216624736785890000e+000) (20, 3.41135039925575260000e-002) (21, 1.28952479362487790000e+000) (22, 1.93678513169288640000e-001) (23, -1.20062208175659180000e+000) (24, -2.70489186048507690000e-001) (25, 1.19723854586482050000e-002) (26, -4.23574298620224000000e-002) (27, 1.55408270657062530000e-002) (28, 1.20821976661682130000e+000) (29, 8.82986336946487430000e-002) (30, 4.60729636251926420000e-002) (31, 3.18882644176483150000e-001) (32, 5.84875270724296570000e-002) (33, -2.93709009885787960000e-001) (34, 3.64814192056655880000e-001) (35, 1.30792069435119630000e+000) (36, 3.68893593549728390000e-001) (37, 3.56344759464263920000e-001) (38, 8.16217437386512760000e-002) (39, -6.13989710807800290000e-001) (40, -1.25513863563537600000e+000) (41, 3.39665822684764860000e-002) (42, -1.16747379302978520000e+000) (43, -3.50534170866012570000e-002) (44, 1.41698285937309270000e-001) (45, 4.24603857100009920000e-002) (46, 8.25781151652336120000e-002) (47, -6.02939501404762270000e-002) (48, -7.05739855766296390000e-002) (49, -5.32373376190662380000e-002) (0, 6.83593738358467820000e-004) (1, 1.79790496826171880000e+000) (2, -1.23053538799285890000e+000) (3, 1.63647305965423580000e+000) (4, 1.65735316276550290000e+000) (5, 1.72803187370300290000e+000) (6, 1.67338716983795170000e+000) (7, 1.79315638542175290000e+000) (8, -2.23400637507438660000e-001) (9, -3.83630037307739260000e-001) (10, -5.61532676219940190000e-002) (11, 6.06455877423286440000e-002) (12, 7.34407156705856320000e-002) (13, 1.83642268180847170000e-001) (14, -3.40225219726562500000e-001) (15, 1.63144469261169430000e-001) (16, 2.25768730044364930000e-001) (17, 1.01607412099838260000e-001) (18, 7.49630033969879150000e-001) (19, 7.99205124378204350000e-001) (20, 7.26895332336425780000e-001) (21, -3.77200305461883540000e-001) (22, -2.87390835583209990000e-002) (23, 1.87810972332954410000e-001) (24, 2.16644316911697390000e-001) (25, 2.64907002449035640000e-001) (26, 2.00074136257171630000e-001) (27, 6.58767938613891600000e-001) (28, -3.83480846881866460000e-001) (29, -2.39043936133384700000e-001) (30, -5.36592453718185420000e-002) (31, -3.08346569538116460000e-001) (32, -1.06234923005104060000e-001) (33, -2.60497748851776120000e-001) (34, -3.57888817787170410000e-001) (35, -2.09744349122047420000e-001) (36, -1.22316837310791020000e+000) (37, -1.13680362701416020000e+000) (38, -3.80346357822418210000e-001) (39, 6.78548514842987060000e-001) (40, 7.75051176548004150000e-001) (41, 8.34421038627624510000e-001) (42, 1.69225311279296870000e+000) (43, -3.13995033502578740000e-001) (44, -3.63470137119293210000e-001) (45, 3.28604057431221010000e-002) (46, 6.12010061740875240000e-002) (47, 2.20590338110923770000e-001) (48, 3.40704023838043210000e-001) (49, 6.14911131560802460000e-003) (0, 3.57299819588661190000e-002) (1, -1.21840763092041020000e+000) (2, 1.71119844913482670000e+000) (3, -1.13134717941284180000e+000) (4, -1.25349068641662600000e+000) (5, -1.20491278171539310000e+000) (6, -1.14990186691284180000e+000) (7, -1.15867865085601810000e+000) (8, 1.69328123331069950000e-001) (9, 1.52075096964836120000e-001) (10, -8.86953249573707580000e-002) (11, -9.79828927665948870000e-003) (12, 1.58632751554250720000e-002) (13, -1.23384952545166020000e+000) (14, -1.58828541636466980000e-001) (15, -4.32047277688980100000e-001) (16, -7.15543553233146670000e-002) (17, -9.94314998388290410000e-002) (18, -1.18129825592041020000e+000) (19, -1.27506661415100100000e+000) (20, -1.11481273174285890000e+000) (21, -1.37887388467788700000e-001) (22, -4.30490881204605100000e-001) (23, -1.64932042360305790000e-001) (24, 1.45698994398117070000e-001) (25, -5.40387511253356930000e-001) (26, -1.27971744537353520000e+000) (27, -1.26308536529541020000e+000) (28, -2.74239927530288700000e-001) (29, 1.08915552496910100000e-001) (30, 1.17441251873970030000e-001) (31, 5.89536547660827640000e-001) (32, 1.69369950890541080000e-001) (33, 4.75129157304763790000e-001) (34, -8.63133594393730160000e-002) (35, -1.11306563019752500000e-001) (36, 1.65216517448425290000e+000) (37, 1.61714935302734370000e+000) (38, 4.38459247350692750000e-001) (39, 2.92222619056701660000e-001) (40, 4.15365956723690030000e-003) (41, -1.12404739856719970000e+000) (42, -1.27596378326416020000e+000) (43, 1.28709226846694950000e-001) (44, 8.62181857228279110000e-002) (45, 6.74387067556381230000e-002) (46, -4.01449762284755710000e-002) (47, -4.85837422311306000000e-002) (48, -1.15009105205535890000e+000) (49, 4.54869046807289120000e-002) (0, -8.70971679687500000000e-002) (1, 1.66407322883605960000e+000) (2, -4.62888628244400020000e-001) (3, 1.78727257251739500000e+000) (4, 1.61562955379486080000e+000) (5, 1.73406827449798580000e+000) (6, 1.67400968074798580000e+000) (7, 1.75110316276550290000e+000) (8, -2.30126589536666870000e-001) (9, -2.58514016866683960000e-001) (10, -2.01686426997184750000e-001) (11, -1.57637372612953190000e-001) (12, -1.38661518692970280000e-001) (13, 1.84449121356010440000e-001) (14, -1.79216101765632630000e-001) (15, 9.05971080064773560000e-002) (16, -3.30611481331288810000e-003) (17, -2.13826313614845280000e-001) (18, 1.67064058780670170000e+000) (19, 1.77964937686920170000e+000) (20, 2.53400474786758420000e-001) (21, -1.84410199522972110000e-001) (22, -1.45148336887359620000e-001) (23, -4.37470851466059680000e-004) (24, -1.09132707118988040000e-001) (25, 5.29183484613895420000e-002) (26, 5.02816252410411830000e-002) (27, 6.32753133773803710000e-001) (28, -2.68791288137435910000e-001) (29, -2.77141958475112920000e-001) (30, -2.19152450561523440000e-001) (31, -3.19872647523880000000e-001) (32, -2.69964218139648440000e-001) (33, -2.65343874692916870000e-001) (34, -1.75084024667739870000e-001) (35, -2.21031293272972110000e-001) (36, -3.82995009422302250000e-001) (37, -3.75383943319320680000e-001) (38, -3.69890958070755000000e-001) (39, 9.64530557394027710000e-002) (40, 1.76453089714050290000e+000) (41, 4.30762976408004760000e-001) (42, 1.74880826473236080000e+000) (43, -3.99865329265594480000e-001) (44, -2.36925899982452390000e-001) (45, -5.11248968541622160000e-002) (46, -2.12617829442024230000e-001) (47, -1.91865891218185420000e-001) (48, 1.82587549090385440000e-001) (49, -4.01287436485290530000e-001) (0, -8.57849121093750000000e-002) (1, 1.62042081356048580000e+000) (2, 2.13658154010772710000e-001) (3, 1.64799654483795170000e+000) (4, 1.80024266242980960000e+000) (5, 1.78556978702545170000e+000) (6, 1.78650355339050290000e+000) (7, 1.76363372802734370000e+000) (8, -1.06699131429195400000e-001) (9, -1.05307526886463170000e-001) (10, -5.78456073999404910000e-002) (11, 4.90673184394836430000e-002) (12, -5.17566576600074770000e-002) (13, 5.77460974454879760000e-002) (14, 3.57214152812957760000e-001) (15, 1.43114849925041200000e-001) (16, -1.69455129653215410000e-002) (17, -1.81601103395223620000e-002) (18, 1.26304924488067630000e-002) (19, 2.31839064508676530000e-002) (20, 1.26927584409713750000e-001) (21, 3.24218511581420900000e-001) (22, 1.54275670647621150000e-002) (23, -3.65500003099441530000e-002) (24, 5.09044751524925230000e-002) (25, -3.92249375581741330000e-002) (26, -2.47181337326765060000e-002) (27, 9.58246827125549320000e-001) (28, 4.11407262086868290000e-001) (29, -6.06359243392944340000e-002) (30, -3.38994488120079040000e-002) (31, -3.26883457601070400000e-002) (32, 4.84104976058006290000e-002) (33, -4.84174489974975590000e-002) (34, 3.98296892642974850000e-001) (35, 3.70312303304672240000e-001) (36, -2.23692432045936580000e-001) (37, -1.45007103681564330000e-001) (38, 2.92078349739313130000e-002) (39, -1.11888274550437930000e-001) (40, -1.80695019662380220000e-002) (41, -3.29418107867240910000e-002) (42, -6.09510540962219240000e-002) (43, 3.67090478539466860000e-002) (44, 5.53492009639739990000e-002) (45, 3.23838368058204650000e-003) (46, -1.05213057249784470000e-002) (47, -2.48297862708568570000e-003) (48, 7.85777717828750610000e-002) (49, 2.18683741986751560000e-002) (0, 9.85168442130088810000e-002) (1, 1.75738370418548580000e+000) (2, -1.20151317119598390000e+000) (3, 1.62782442569732670000e+000) (4, 1.64575648307800290000e+000) (5, 1.68251192569732670000e+000) (6, 1.62977135181427000000e+000) (7, 1.72781825065612790000e+000) (8, -7.97281488776206970000e-002) (9, -2.45658323168754580000e-001) (10, -1.46748811006546020000e-001) (11, -1.35794542729854580000e-002) (12, -6.73196860589087010000e-004) (13, 6.22933059930801390000e-002) (14, -1.27940011024475100000e+000) (15, -4.14756052196025850000e-002) (16, 9.01192352175712590000e-002) (17, 2.19007179141044620000e-001) (18, 1.78124237060546870000e+000) (19, 1.64376068115234370000e+000) (20, 1.75904154777526860000e-001) (21, -1.15571236610412600000e+000) (22, -5.34350015223026280000e-002) (23, 1.44025489687919620000e-001) (24, 1.10932596027851100000e-001) (25, 9.75573211908340450000e-002) (26, 1.03034272789955140000e-001) (27, 1.69022059440612790000e+000) (28, -1.11279857158660890000e+000) (29, -1.70609518885612490000e-001) (30, -3.67634482681751250000e-002) (31, -1.21052193641662600000e+000) (32, -1.54420927166938780000e-001) (33, -1.55300617218017580000e-001) (34, -3.35210621356964110000e-001) (35, -1.10916078090667720000e+000) (36, -1.22711741924285890000e+000) (37, -1.18016302585601810000e+000) (38, -5.68155497312545780000e-002) (39, 1.74771571159362790000e+000) (40, 1.64192354679107670000e+000) (41, 1.31946593523025510000e-001) (42, 1.77828216552734370000e+000) (43, -1.15549676120281220000e-001) (44, -1.63364604115486150000e-001) (45, 1.71367079019546510000e-002) (46, -4.32791560888290410000e-002) (47, 1.19828499853610990000e-001) (48, 5.47188445925712590000e-002) (49, -5.52448928356170650000e-002) (0, -9.02343764901161190000e-002) (1, -1.09281563758850100000e+000) (2, 1.63901209831237790000e+000) (3, -1.27150821685791020000e+000) (4, -1.23392283916473390000e+000) (5, -1.24754583835601810000e+000) (6, -1.11002755165100100000e+000) (7, -1.09468936920166020000e+000) (8, -6.23912066221237180000e-002) (9, -4.65031601488590240000e-002) (10, -1.70016020536422730000e-001) (11, -2.11361229419708250000e-001) (12, -3.63366305828094480000e-001) (13, -3.97056132555007930000e-001) (14, -7.87473097443580630000e-002) (15, -6.27782046794891360000e-002) (16, -4.21526521444320680000e-001) (17, -3.40288758277893070000e-001) (18, -4.64512169361114500000e-001) (19, -6.29564166069030760000e-001) (20, -5.33826112747192380000e-001) (21, 1.85671411454677580000e-002) (22, -1.34439587593078610000e-001) (23, -4.59862709045410160000e-001) (24, -3.17718088626861570000e-001) (25, -3.66416484117507930000e-001) (26, -4.78312224149703980000e-001) (27, -1.24765574932098390000e+000) (28, 1.74868218600749970000e-002) (29, -2.09117159247398380000e-002) (30, 4.97347712516784670000e-002) (31, 1.66399991512298580000e+000) (32, -6.97556212544441220000e-002) (33, 4.18632209300994870000e-001) (34, -3.14084440469741820000e-002) (35, -4.71860356628894810000e-002) (36, 1.80303800106048580000e+000) (37, 1.70021212100982670000e+000) (38, 8.69245305657386780000e-002) (39, -2.40368276834487920000e-001) (40, -5.48404991626739500000e-001) (41, -6.52801871299743650000e-001) (42, -1.23489940166473390000e+000) (43, 8.62172022461891170000e-002) (44, -6.32267892360687260000e-002) (45, -1.46090254187583920000e-001) (46, -8.75086858868598940000e-002) (47, -3.72460544109344480000e-001) (48, -4.05082255601882930000e-001) (49, 5.00582605600357060000e-002) (0, -6.14013662561774250000e-003) (1, 1.70368492603302000000e+000) (2, -3.37541282176971440000e-001) (3, 1.71834564208984370000e+000) (4, 1.72573697566986080000e+000) (5, 1.76328575611114500000e+000) (6, 1.69911956787109370000e+000) (7, 1.76328575611114500000e+000) (8, -2.52225697040557860000e-001) (9, -1.23264513909816740000e-001) (10, -2.29453489184379580000e-001) (11, -7.67175480723381040000e-002) (12, -9.50658693909645080000e-002) (13, 1.46228134632110600000e-001) (14, 4.96068075299263000000e-002) (15, 1.53811410069465640000e-001) (16, -8.28346386551856990000e-002) (17, 8.81614536046981810000e-002) (18, 1.01109489798545840000e-001) (19, 1.09331250190734860000e-001) (20, 2.59075909852981570000e-001) (21, 5.21763935685157780000e-002) (22, 1.04772105813026430000e-001) (23, 1.24717410653829570000e-002) (24, -4.26661632955074310000e-002) (25, 3.97090688347816470000e-002) (26, 1.54407903552055360000e-001) (27, 1.79700779914855960000e+000) (28, 3.08201760053634640000e-002) (29, -1.12351424992084500000e-001) (30, -2.21195444464683530000e-001) (31, -2.15245172381401060000e-001) (32, -1.79294809699058530000e-001) (33, -1.64004221558570860000e-001) (34, -1.00460827350616460000e-001) (35, 5.87681904435157780000e-002) (36, -3.47008734941482540000e-001) (37, -3.33269864320755000000e-001) (38, -8.00150111317634580000e-002) (39, 2.24818885326385500000e-002) (40, 9.72847491502761840000e-002) (41, 1.57991647720336910000e+000) (42, 1.66277313232421870000e+000) (43, -1.67002305388450620000e-001) (44, -1.44358262419700620000e-001) (45, -1.26847282052040100000e-001) (46, -3.17102298140525820000e-002) (47, -9.55769501160830260000e-004) (48, 2.13745236396789550000e-001) (49, -2.23673477768898010000e-001) (0, -3.87084968388080600000e-002) (1, 2.75866508483886720000e-001) (2, 1.75270235538482670000e+000) (3, 2.55816459655761720000e-001) (4, 3.51788133382797240000e-001) (5, 3.29321056604385380000e-001) (6, 3.80364775657653810000e-001) (7, -4.59857612848281860000e-001) (8, -5.59325441718101500000e-002) (9, -6.54357224702835080000e-002) (10, -3.03095728158950810000e-001) (11, -1.52845486998558040000e-001) (12, -4.25858616828918460000e-001) (13, -3.37743580341339110000e-001) (14, 6.84470295906066890000e-001) (15, 2.08675824105739590000e-002) (16, -7.45012164115905760000e-001) (17, -7.07164287567138670000e-001) (18, -1.22639715671539310000e+000) (19, -1.18110907077789310000e+000) (20, -3.17681342363357540000e-001) (21, 5.90329766273498540000e-001) (22, -1.03824064135551450000e-002) (23, -6.46887540817260740000e-001) (24, -2.65908390283584590000e-001) (25, -3.85937094688415530000e-001) (26, -3.22533637285232540000e-001) (27, 5.41934221982955930000e-002) (28, 6.24460577964782710000e-001) (29, 9.32013709098100660000e-003) (30, -1.18254713714122770000e-001) (31, 6.26199245452880860000e-001) (32, -9.52322408556938170000e-002) (33, -1.07418842613697050000e-001) (34, 4.46733981370925900000e-001) (35, 6.74747467041015630000e-001) (36, 1.68426966667175290000e+000) (37, 1.67593228816986080000e+000) (38, -1.64360672235488890000e-001) (39, -1.08688914775848390000e+000) (40, -1.15474796295166020000e+000) (41, -2.99816340208053590000e-001) (42, -1.14124703407287600000e+000) (43, -7.68126770853996280000e-002) (44, 8.85437726974487300000e-002) (45, -2.07734405994415280000e-001) (46, -3.04926782846450810000e-001) (47, -4.89512175321578980000e-001) (48, -3.33477228879928590000e-001) (49, -2.28789389133453370000e-001) (0, -9.82177779078483580000e-002) (1, 1.75587618350982670000e+000) (2, 1.75307464599609370000e+000) (3, 1.74061739444732670000e+000) (4, 1.75176239013671870000e+000) (5, 1.76330411434173580000e+000) (6, 1.79483485221862790000e+000) (7, 7.07596540451049800000e-001) (8, 4.97274920344352720000e-002) (9, 6.58163651823997500000e-002) (10, 9.48224440217018130000e-002) (11, 3.92743423581123350000e-002) (12, 1.09769566915929320000e-003) (13, 1.05033047497272490000e-001) (14, 1.73589932918548580000e+000) (15, 4.19088274240493770000e-001) (16, -1.21854197978973390000e+000) (17, -1.14241886138916020000e+000) (18, -1.21183419227600100000e+000) (19, -1.23211622238159180000e+000) (20, 2.89147943258285520000e-001) (21, 1.76201021671295170000e+000) (22, 3.25219720602035520000e-001) (23, -1.22327220439910890000e+000) (24, -2.07384645938873290000e-001) (25, 1.75598144531250000000e-001) (26, 1.87540367245674130000e-001) (27, 1.66024017333984370000e+000) (28, 1.79369354248046870000e+000) (29, 7.26156756281852720000e-002) (30, 9.25444290041923520000e-002) (31, 3.38111698627471920000e-001) (32, 9.07274242490530010000e-003) (33, -1.62891760468482970000e-001) (34, 9.77038025856018070000e-001) (35, 1.72368621826171870000e+000) (36, 3.54080349206924440000e-001) (37, 3.09524685144424440000e-001) (38, -2.50220984220504760000e-001) (39, -1.23787176609039310000e+000) (40, -1.19747257232666020000e+000) (41, 2.80737280845642090000e-001) (42, -1.17825877666473390000e+000) (43, 3.90219241380691530000e-002) (44, 1.44637182354927060000e-001) (45, 9.41510573029518130000e-002) (46, 1.06290951371192930000e-001) (47, -1.20553802698850630000e-002) (48, 1.32047206163406370000e-001) (49, 5.32377734780311580000e-002) (0, 5.45959472656250000000e-002) (1, -1.24600160121917720000e+000) (2, -6.87119811773300170000e-002) (3, -1.14053297042846680000e+000) (4, -1.16047310829162600000e+000) (5, -1.12877142429351810000e+000) (6, -1.09858953952789310000e+000) (7, -1.18772530555725100000e+000) (8, 4.45688664913177490000e-001) (9, 4.54544901847839360000e-001) (10, 2.02704183757305150000e-002) (11, 2.70819403231143950000e-002) (12, -3.27011048793792720000e-002) (13, -6.93289220333099370000e-001) (14, -2.97653794288635250000e-001) (15, -2.24082782864570620000e-001) (16, 7.24254921078681950000e-002) (17, 4.59236353635787960000e-002) (18, 6.88109919428825380000e-002) (19, -6.57986462116241460000e-001) (20, -7.83328235149383540000e-001) (21, -2.12430402636528020000e-001) (22, -2.45673581957817080000e-001) (23, -5.69141060113906860000e-002) (24, 2.45676577091217040000e-001) (25, -7.34536707401275630000e-001) (26, -2.23338156938552860000e-001) (27, -1.14824771881103520000e+000) (28, -3.35495620965957640000e-001) (29, 4.78726983070373540000e-001) (30, 4.37052786350250240000e-001) (31, 6.13382793962955470000e-002) (32, 3.21464419364929200000e-001) (33, 1.51542055606842040000e+000) (34, -2.43232324719429020000e-001) (35, -2.80325919389724730000e-001) (36, 1.43762516975402830000e+000) (37, 1.53118598461151120000e+000) (38, 5.28728127479553220000e-001) (39, 2.67129808664321900000e-001) (40, 1.21242783963680270000e-001) (41, -6.65597498416900630000e-001) (42, -6.98434412479400630000e-001) (43, 3.52774858474731450000e-001) (44, 3.81626188755035400000e-001) (45, -7.93450549244880680000e-002) (46, 1.01093173027038570000e-001) (47, 5.97427412867546080000e-002) (48, -7.33883678913116460000e-001) (49, 2.63841152191162110000e-001) (0, -1.15783689543604850000e-002) (1, 1.72849571704864500000e+000) (2, -1.26584422588348390000e+000) (3, 1.75930631160736080000e+000) (4, 1.77915489673614500000e+000) (5, 1.66865694522857670000e+000) (6, 1.80253148078918460000e+000) (7, 1.74527430534362790000e+000) (8, -3.86571772396564480000e-002) (9, -6.57140761613845830000e-002) (10, 8.34584760013967750000e-004) (11, 2.57796589285135270000e-002) (12, 1.61228880286216740000e-001) (13, 2.08306357264518740000e-001) (14, -1.26455628871917720000e+000) (15, 9.35983359813690190000e-002) (16, 1.56786933541297910000e-001) (17, 1.97594523429870610000e-001) (18, 5.21750926971435550000e-001) (19, 1.65182340145111080000e+000) (20, 3.42199206352233890000e-001) (21, -1.25565743446350100000e+000) (22, 9.69979986548423770000e-002) (23, 1.70861646533012390000e-001) (24, 1.61167845129966740000e-001) (25, 2.14202716946601870000e-001) (26, 2.88579791784286500000e-001) (27, 1.79409027099609380000e+000) (28, -1.21191966533660890000e+000) (29, 1.02624986320734020000e-002) (30, 9.64001119136810300000e-002) (31, -1.19508612155914310000e+000) (32, 3.42107079923152920000e-002) (33, -2.06969931721687320000e-001) (34, -2.53085494041442870000e-001) (35, -1.13013255596160890000e+000) (36, -1.27742254734039310000e+000) (37, -1.16971385478973390000e+000) (38, -1.38010203838348390000e-001) (39, 5.16286730766296390000e-001) (40, 5.71335911750793460000e-001) (41, 3.13507884740829470000e-001) (42, 1.77961266040802000000e+000) (43, -8.62401947379112240000e-002) (44, -4.49170591309666630000e-004) (45, 7.11898058652877810000e-002) (46, 1.51534387841820720000e-002) (47, 9.49813202023506160000e-002) (48, 2.91729211807250980000e-001) (49, -3.99890542030334470000e-002) (0, -2.67333984375000000000e-002) (1, -4.21435385942459110000e-001) (2, -1.18224430084228520000e+000) (3, -5.02978324890136720000e-001) (4, -4.47375327348709110000e-001) (5, -4.46142435073852540000e-001) (6, -3.77087265253067020000e-001) (7, -2.36260354518890380000e-001) (8, -1.03158138692379000000e-001) (9, 8.86204317212104800000e-002) (10, -9.22938808798789980000e-002) (11, 3.37304850108921530000e-003) (12, 9.92121249437332150000e-002) (13, 5.36184012889862060000e-002) (14, -1.26357972621917720000e+000) (15, -2.21510142087936400000e-001) (16, 2.62810736894607540000e-001) (17, 1.78459405899047850000e-001) (18, 1.70875704288482670000e+000) (19, 2.37017259001731870000e-001) (20, -1.27824723720550540000e-001) (21, -1.13920235633850100000e+000) (22, -2.98170298337936400000e-001) (23, 1.73139765858650210000e-001) (24, 1.11509859561920170000e-001) (25, -1.90858617424964900000e-001) (26, -6.83725625276565550000e-002) (27, -2.90876597166061400000e-001) (28, -1.26670479774475100000e+000) (29, -7.13763805106282230000e-003) (30, 5.02476245164871220000e-002) (31, -5.69896578788757320000e-001) (32, 8.36765840649604800000e-002) (33, 1.93827956914901730000e-001) (34, -1.19539737701416020000e+000) (35, -1.16882884502410890000e+000) (36, -2.62908995151519780000e-001) (37, -5.71178317070007320000e-001) (38, 1.97273001074790950000e-001) (39, 1.60416102409362790000e+000) (40, 1.64737391471862790000e+000) (41, -2.29223176836967470000e-001) (42, 1.78395235538482670000e+000) (43, 6.29185214638710020000e-002) (44, -3.25526744127273560000e-002) (45, -1.29481852054595950000e-002) (46, -2.30246577411890030000e-002) (47, -3.37468758225440980000e-002) (48, -7.93039575219154360000e-002) (49, -9.19093564152717590000e-002) (0, -4.14428710937500000000e-002) (1, 1.69678795337677000000e+000) (2, -1.17045235633850100000e+000) (3, 1.76339566707611080000e+000) (4, 1.62308192253112790000e+000) (5, 1.78745567798614500000e+000) (6, 1.63697969913482670000e+000) (7, 1.64161229133605960000e+000) (8, -2.80968934297561650000e-001) (9, -3.90697926282882690000e-001) (10, 6.03058487176895140000e-002) (11, 1.08618125319480900000e-001) (12, 8.33245217800140380000e-002) (13, 3.20158332586288450000e-001) (14, -1.42693864181637760000e-002) (15, 2.87482291460037230000e-001) (16, 2.36997529864311220000e-001) (17, 2.91617870330810550000e-001) (18, 2.36251786351203920000e-001) (19, 1.63179779052734370000e+000) (20, 2.00781032443046570000e-001) (21, -5.24839200079441070000e-003) (22, 8.77991467714309690000e-002) (23, 2.52891063690185550000e-001) (24, 5.69856278598308560000e-002) (25, 3.72318983078002930000e-001) (26, 2.24711611866950990000e-001) (27, 9.68956172466278080000e-001) (28, 1.27874994650483130000e-002) (29, -2.19408929347991940000e-001) (30, -1.31921246647834780000e-001) (31, -1.27820384502410890000e+000) (32, -9.51902493834495540000e-002) (33, -3.34604024887084960000e-001) (34, 4.24895063042640690000e-002) (35, -4.64715361595153810000e-002) (36, -1.15754950046539310000e+000) (37, -1.15487623214721680000e+000) (38, -3.48861843347549440000e-001) (39, 1.88142418861389160000e-001) (40, 3.68801772594451900000e-001) (41, 2.91924774646759030000e-001) (42, 1.80009615421295170000e+000) (43, -3.90350043773651120000e-001) (44, -2.32946529984474180000e-001) (45, 1.47675173357129100000e-002) (46, 1.12585410475730900000e-001) (47, 1.17870412766933440000e-001) (48, 2.31565847992897030000e-001) (49, 2.84486655145883560000e-002) (0, -6.87744170427322390000e-002) (1, -1.18206739425659180000e+000) (2, -8.07071290910243990000e-003) (3, -1.25501048564910890000e+000) (4, -1.21381783485412600000e+000) (5, -1.11513006687164310000e+000) (6, -1.09020328521728520000e+000) (7, -1.19133245944976810000e+000) (8, 4.48219090700149540000e-001) (9, 3.52461069822311400000e-001) (10, 2.20552504062652590000e-001) (11, 1.02382764220237730000e-001) (12, -7.60639235377311710000e-002) (13, -2.70471632480621340000e-001) (14, -2.44692817330360410000e-001) (15, -1.83922708034515380000e-001) (16, 1.65448755025863650000e-001) (17, 2.02912896871566770000e-001) (18, 1.11177638173103330000e-001) (19, -6.96969568729400630000e-001) (20, -5.45999884605407710000e-001) (21, -1.30465507507324220000e-001) (22, -2.41460576653480530000e-001) (23, -2.15685125440359120000e-002) (24, 1.26166954636573790000e-001) (25, -3.07082504034042360000e-001) (26, -3.00635218620300290000e-001) (27, -8.00149500370025630000e-001) (28, -1.77175700664520260000e-001) (29, 4.03065294027328490000e-001) (30, 4.62537944316864010000e-001) (31, 9.74203459918498990000e-003) (32, 3.09516727924346920000e-001) (33, 6.44602537155151370000e-001) (34, -2.48633980751037600000e-001) (35, -1.05825603008270260000e-001) (36, 5.05985617637634280000e-001) (37, 4.95656847953796390000e-001) (38, 5.29098033905029300000e-001) (39, 1.20274186134338380000e-001) (40, 3.45357917249202730000e-002) (41, -6.13077461719512940000e-001) (42, -1.12102615833282470000e+000) (43, 3.06818962097167970000e-001) (44, 4.37330424785614010000e-001) (45, 7.62409791350364690000e-002) (46, 2.76085920631885530000e-002) (47, -9.80182737112045290000e-002) (48, -2.57446765899658200000e-001) (49, 3.25337052345275880000e-001) (0, 4.06677238643169400000e-002) (1, 4.11934912204742430000e-001) (2, 1.64888763427734370000e+000) (3, 2.89480119943618770000e-001) (4, 3.95785033702850340000e-001) (5, 4.45235729217529300000e-001) (6, 3.63204479217529300000e-001) (7, 5.97055368125438690000e-002) (8, 1.22128605842590330000e-001) (9, 2.45066404342651370000e-001) (10, 7.59139284491539000000e-002) (11, 8.21187905967235570000e-003) (12, -4.67630773782730100000e-001) (13, -1.53412986546754840000e-002) (14, 1.68727874755859380000e+000) (15, 1.53068706393241880000e-001) (16, -6.60460591316223140000e-001) (17, -5.93852877616882320000e-001) (18, -5.44939339160919190000e-001) (19, -5.25481343269348140000e-001) (20, -1.05519920587539670000e-001) (21, 1.60917198657989500000e+000) (22, 4.30901385843753810000e-002) (23, -6.47051095962524410000e-001) (24, -5.94016253948211670000e-001) (25, 1.94891039282083510000e-002) (26, -2.77916584163904190000e-002) (27, -2.83699501305818560000e-002) (28, 1.68361055850982670000e+000) (29, 2.11343705654144290000e-001) (30, 2.43139434605836870000e-002) (31, 1.61975407600402830000e+000) (32, -3.55606824159622190000e-002) (33, -1.99334338307380680000e-001) (34, 1.51946723461151120000e+000) (35, 1.66388392448425290000e+000) (36, 2.62409418821334840000e-001) (37, 4.88492459058761600000e-001) (38, -3.20650152862071990000e-002) (39, -6.15489840507507320000e-001) (40, -5.74175119400024410000e-001) (41, -4.50693108141422270000e-002) (42, -5.36644637584686280000e-001) (43, 2.68478691577911380000e-001) (44, 2.97806888818740840000e-001) (45, 6.66304826736450200000e-002) (46, 1.62502061575651170000e-002) (47, -6.13492548465728760000e-001) (48, 3.38277556002140050000e-002) (49, -6.24025613069534300000e-003) (0, -3.18176262080669400000e-002) (1, 1.67211759090423580000e+000) (2, 1.70314788818359380000e+000) (3, 1.65867161750793460000e+000) (4, 1.69889974594116210000e+000) (5, 1.79990077018737790000e+000) (6, 1.70554041862487790000e+000) (7, 4.48376595973968510000e-001) (8, 5.13479858636856080000e-002) (9, 1.58671028912067410000e-002) (10, -2.78854579664766790000e-003) (11, -3.99514362215995790000e-002) (12, -1.53891459107398990000e-001) (13, -3.89645472168922420000e-002) (14, 1.77729332447052000000e+000) (15, 1.74620211124420170000e+000) (16, -1.23378849029541020000e+000) (17, -1.20631051063537600000e+000) (18, -1.10869085788726810000e+000) (19, -1.22383975982666020000e+000) (20, 4.21221777796745300000e-002) (21, 1.76327359676361080000e+000) (22, 3.77080470323562620000e-001) (23, -1.17488348484039310000e+000) (24, -1.24846136569976810000e+000) (25, 1.32049605250358580000e-001) (26, 4.69073355197906490000e-002) (27, 6.44247412681579590000e-001) (28, 1.76770472526550290000e+000) (29, 5.46560883522033690000e-002) (30, 5.18929064273834230000e-002) (31, 1.76357877254486080000e+000) (32, -7.79280513525009160000e-002) (33, -2.46341034770011900000e-001) (34, 1.63567352294921870000e+000) (35, 1.70014488697052000000e+000) (36, 2.80678004026412960000e-001) (37, 3.93964946269989010000e-001) (38, -3.39390069246292110000e-001) (39, -1.19815623760223390000e+000) (40, -1.11321353912353520000e+000) (41, 2.13367417454719540000e-001) (42, -1.09212589263916020000e+000) (43, 5.40579408407211300000e-002) (44, 9.63785722851753230000e-002) (45, 5.23445047438144680000e-002) (46, -8.31887498497962950000e-002) (47, -1.27328962087631230000e-001) (48, 1.85823351144790650000e-001) (49, -4.74296100437641140000e-002) (0, 1.30371097475290300000e-002) (1, 1.72017669677734370000e+000) (2, -3.87322604656219480000e-001) (3, 1.66448211669921870000e+000) (4, 1.69297933578491210000e+000) (5, 1.64030611515045170000e+000) (6, 1.74472498893737790000e+000) (7, 1.75780487060546870000e+000) (8, 3.08822765946388240000e-002) (9, -1.08137495815753940000e-001) (10, 1.34862676262855530000e-001) (11, 2.83631291240453720000e-002) (12, 1.16413407027721410000e-001) (13, 1.13145478069782260000e-001) (14, -3.83245438337326050000e-001) (15, -5.32226115465164180000e-002) (16, 2.28124573826789860000e-001) (17, 3.97334285080432890000e-002) (18, 1.07345975935459140000e-001) (19, 2.59573787450790410000e-001) (20, 6.33774101734161380000e-002) (21, -3.13805758953094480000e-001) (22, 1.13281317055225370000e-001) (23, 9.83760058879852290000e-002) (24, 7.36338719725608830000e-002) (25, 4.89547960460186000000e-002) (26, 5.35263307392597200000e-002) (27, 1.23341977596282960000e-001) (28, -2.57598489522933960000e-001) (29, -2.49648950994014740000e-002) (30, 1.19799867272377010000e-001) (31, -2.47259154915809630000e-001) (32, 5.43823763728141780000e-002) (33, -6.96417167782783510000e-002) (34, -3.00199985504150390000e-001) (35, -4.04418557882308960000e-001) (36, -2.50738143920898440000e-001) (37, -3.51061612367630000000e-001) (38, 1.32440263405442240000e-002) (39, 1.82352080941200260000e-001) (40, 2.17697545886039730000e-001) (41, 1.48460417985916140000e-001) (42, 1.73695528507232670000e+000) (43, 5.73471263051033020000e-002) (44, -9.83840823173522950000e-002) (45, -4.74911555647850040000e-003) (46, 6.86044525355100630000e-003) (47, 1.16096019744873050000e-001) (48, 1.66081294417381290000e-001) (49, -3.96544933319091800000e-002) (0, 8.91662612557411190000e-002) (1, 1.63788294792175290000e+000) (2, -1.14935255050659180000e+000) (3, 1.63743138313293460000e+000) (4, 1.77742767333984370000e+000) (5, 1.62960052490234380000e+000) (6, 1.69125211238861080000e+000) (7, 1.64778900146484370000e+000) (8, -1.36829242110252380000e-001) (9, -8.92401039600372310000e-002) (10, -6.37527704238891600000e-002) (11, 5.00533282756805420000e-002) (12, 6.08632415533065800000e-002) (13, 5.01837804913520810000e-002) (14, -4.74093779921531680000e-002) (15, 1.36583998799324040000e-001) (16, 1.08233414590358730000e-001) (17, -1.54013102874159810000e-002) (18, 2.27430522441864010000e-001) (19, 1.66852259635925290000e+000) (20, 1.62331283092498780000e-001) (21, -4.00607362389564510000e-002) (22, 4.15356643497943880000e-002) (23, 1.89373567700386050000e-001) (24, -1.81534141302108760000e-002) (25, 8.10467079281806950000e-002) (26, 2.45239958167076110000e-001) (27, 1.70106041431427000000e+000) (28, -4.69821318984031680000e-002) (29, -6.01629689335823060000e-002) (30, -1.95956423878669740000e-001) (31, -2.62606471776962280000e-001) (32, -9.40277054905891420000e-002) (33, -1.61548584699630740000e-001) (34, -1.15242317318916320000e-001) (35, -3.09481974691152570000e-002) (36, -6.79405808448791500000e-001) (37, -5.82280635833740230000e-001) (38, -5.00241965055465700000e-002) (39, -4.27500940859317780000e-002) (40, 1.80101260542869570000e-001) (41, 2.28425547480583190000e-001) (42, 1.69921112060546870000e+000) (43, -9.41961631178855900000e-002) (44, -6.04559332132339480000e-002) (45, 3.77731099724769590000e-002) (46, -9.18961390852928160000e-002) (47, 1.19981870055198670000e-001) (48, 1.39813840389251710000e-001) (49, -6.57684281468391420000e-002) (0, -9.78698730468750000000e-002) (1, 9.20002833008766170000e-002) (2, -6.18474125862121580000e-001) (3, 2.24086493253707890000e-001) (4, 1.60603806376457210000e-001) (5, 6.55659660696983340000e-002) (6, 2.00386524200439450000e-001) (7, 1.72300255298614500000e+000) (8, -7.85279050469398500000e-002) (9, -5.27039356529712680000e-002) (10, -3.49133834242820740000e-002) (11, 8.81722494959831240000e-002) (12, -3.12413740903139110000e-003) (13, -6.19376152753829960000e-002) (14, -3.93717527389526370000e-001) (15, -5.45646771788597110000e-002) (16, 4.43761706352233890000e-001) (17, 4.59225535392761230000e-001) (18, 4.85735535621643070000e-001) (19, 5.29130935668945310000e-001) (20, -5.37942126393318180000e-002) (21, -3.84177744388580320000e-001) (22, 4.52155992388725280000e-002) (23, 4.30053204298019410000e-001) (24, -3.79797220230102540000e-002) (25, -5.07010444998741150000e-002) (26, 1.14606566727161410000e-001) (27, 1.47740721702575680000e-001) (28, -4.70890343189239500000e-001) (29, -1.14624105393886570000e-001) (30, -5.45329600572586060000e-002) (31, -4.23046290874481200000e-001) (32, -2.13638916611671450000e-002) (33, -4.38513755798339840000e-002) (34, -4.74401295185089110000e-001) (35, -4.58066850900650020000e-001) (36, -2.52453237771987920000e-001) (37, -2.90935724973678590000e-001) (38, 8.75189434736967090000e-004) (39, 4.81237262487411500000e-001) (40, 5.16444563865661620000e-001) (41, 3.49386930465698240000e-002) (42, 1.69929039478302000000e+000) (43, -6.17249272763729100000e-002) (44, 5.49437738955020900000e-002) (45, 8.29699262976646420000e-002) (46, -3.27811241149902340000e-002) (47, 9.60885137319564820000e-002) (48, 2.79305391013622280000e-002) (49, -4.39189448952674870000e-002) (0, 2.95349117368459700000e-002) (1, -1.09893739223480220000e+000) (2, -1.43556594848632810000e-001) (3, -1.09213197231292720000e+000) (4, -1.13912916183471680000e+000) (5, -1.19984686374664310000e+000) (6, -1.14197945594787600000e+000) (7, -1.25450992584228520000e+000) (8, 1.10680706799030300000e-001) (9, 1.78124547004699710000e-001) (10, 1.83983922004699710000e-001) (11, 2.84667521715164180000e-001) (12, 3.62781696021556850000e-002) (13, -1.00043669342994690000e-001) (14, -3.04440259933471680000e-001) (15, -1.68183982372283940000e-001) (16, 6.64661750197410580000e-002) (17, 2.08703160285949710000e-001) (18, 6.03199265897274020000e-002) (19, -8.67277011275291440000e-002) (20, -1.35102927684783940000e-001) (21, -3.42861890792846680000e-001) (22, -1.60962387919425960000e-001) (23, 1.73357024788856510000e-001) (24, 3.26002866029739380000e-001) (25, -1.40272617340087890000e-001) (26, -1.82138327509164810000e-002) (27, -1.21278631687164310000e+000) (28, -3.56002777814865110000e-001) (29, 2.90362089872360230000e-001) (30, 2.05303519964218140000e-001) (31, 5.34806177020072940000e-002) (32, 2.71068871021270750000e-001) (33, 4.75728899240493770000e-001) (34, -1.62604555487632750000e-001) (35, -1.86410531401634220000e-001) (36, 2.18389913439750670000e-001) (37, 2.09364682435989380000e-001) (38, 2.01564401388168330000e-001) (39, 5.40395617485046390000e-001) (40, 7.08190724253654480000e-002) (41, -1.78700327873229980000e-001) (42, -1.14764964580535890000e+000) (43, 2.59160906076431270000e-001) (44, 9.94197055697441100000e-002) (45, 9.81440767645835880000e-002) (46, 2.73443132638931270000e-001) (47, 8.02173987030982970000e-002) (48, -1.74683555960655210000e-001) (49, 2.37346947193145750000e-001) (0, 8.44543501734733580000e-002) (1, -1.11745548248291020000e+000) (2, 1.30198178812861440000e-002) (3, -1.22192943096160890000e+000) (4, -1.11178529262542720000e+000) (5, -1.18224430084228520000e+000) (6, -1.13409376144409180000e+000) (7, -1.13893377780914310000e+000) (8, 5.19884712994098660000e-002) (9, 6.88341856002807620000e-002) (10, -3.03229987621307370000e-002) (11, 1.19241932407021520000e-002) (12, -8.74383822083473210000e-002) (13, -2.97610670328140260000e-001) (14, -4.07204478979110720000e-002) (15, -1.42449319362640380000e-001) (16, 1.39667810872197150000e-002) (17, -8.20087417960166930000e-002) (18, -1.49150684475898740000e-001) (19, -8.04922401905059810000e-001) (20, -3.47213894128799440000e-001) (21, -4.99001368880271910000e-002) (22, -2.65062898397445680000e-001) (23, 4.61619766429066660000e-003) (24, 8.14542695879936220000e-002) (25, -2.64932423830032350000e-001) (26, -3.25766175985336300000e-001) (27, -4.64359313249588010000e-001) (28, -6.26930966973304750000e-002) (29, 1.21654003858566280000e-001) (30, 4.13964092731475830000e-002) (31, 1.05008026584982870000e-002) (32, 2.92382016777992250000e-002) (33, 4.22291368246078490000e-001) (34, -1.27176761627197270000e-001) (35, -4.55483272671699520000e-002) (36, 2.86866575479507450000e-001) (37, 3.30435335636138920000e-001) (38, 1.23401865363121030000e-001) (39, 3.11705656349658970000e-002) (40, 2.85053662955760960000e-002) (41, -4.43118423223495480000e-001) (42, -1.11133980751037600000e+000) (43, 5.02184517681598660000e-002) (44, -3.48523519933223720000e-002) (45, 1.05474129319190980000e-001) (46, -6.29293099045753480000e-002) (47, 1.93120986223220830000e-002) (48, -4.03817921876907350000e-001) (49, 1.15218438208103180000e-001) (0, 2.65625007450580600000e-002) (1, 1.68128514289855960000e+000) (2, 1.04597461223602290000e+000) (3, 1.79993748664855960000e+000) (4, 1.67540740966796870000e+000) (5, 1.69244837760925290000e+000) (6, 1.69251549243927000000e+000) (7, 8.78431081771850590000e-001) (8, -2.08456534892320630000e-002) (9, 2.14089807122945790000e-002) (10, 6.05264157056808470000e-002) (11, 3.05825658142566680000e-002) (12, 3.04349837824702260000e-003) (13, -2.50458121299743650000e-002) (14, 1.15514945983886720000e+000) (15, 1.56950250267982480000e-001) (16, -4.38356310129165650000e-001) (17, -1.13926339149475100000e+000) (18, -1.08801209926605220000e+000) (19, -1.38604894280433650000e-001) (20, 1.43251419067382810000e-001) (21, 9.89359855651855470000e-001) (22, 1.62504479289054870000e-001) (23, -3.59547704458236690000e-001) (24, -4.06068712472915650000e-001) (25, 1.21251210570335390000e-001) (26, 5.00945672392845150000e-002) (27, 9.12920713424682620000e-001) (28, 9.75816130638122560000e-001) (29, -5.14975152909755710000e-002) (30, -1.38056334108114240000e-002) (31, 5.88502436876297000000e-002) (32, -4.78510446846485140000e-002) (33, -3.79013240337371830000e-001) (34, 1.08475029468536380000e+000) (35, 1.10865902900695800000e+000) (36, -8.93544405698776250000e-002) (37, 8.24701413512229920000e-002) (38, -3.74344050884246830000e-001) (39, -1.18691968917846680000e+000) (40, -1.10608470439910890000e+000) (41, 1.55322141945362090000e-002) (42, -9.10895988345146180000e-002) (43, 9.17753111571073530000e-003) (44, 5.83474598824977870000e-002) (45, -1.07759714126586910000e-001) (46, 3.72659154236316680000e-002) (47, -1.07016144320368770000e-002) (48, -3.82049903273582460000e-002) (49, 4.41289357841014860000e-002) (0, 2.32116710394620900000e-002) (1, 1.01973392069339750000e-001) (2, 1.74430382251739500000e+000) (3, 1.51137232780456540000e-001) (4, 3.24848778545856480000e-002) (5, 7.28474184870719910000e-002) (6, 1.36555405333638190000e-002) (7, 5.59426099061965940000e-002) (8, 4.17467728257179260000e-002) (9, -2.51721702516078950000e-002) (10, 2.57521253079175950000e-002) (11, 2.87026949226856230000e-002) (12, -1.34548828005790710000e-001) (13, -1.32470101118087770000e-001) (14, 1.07894897460937500000e+000) (15, 1.23126834630966190000e-001) (16, -9.48120057582855220000e-001) (17, -8.44140589237213130000e-001) (18, -1.11496531963348390000e+000) (19, -1.12614083290100100000e+000) (20, -4.15016934275627140000e-002) (21, 1.15673220157623290000e+000) (22, 9.50018391013145450000e-002) (23, -8.80499303340911870000e-001) (24, -3.51381152868270870000e-001) (25, -5.69341406226158140000e-002) (26, -7.62490108609199520000e-002) (27, -1.31704229861497880000e-002) (28, 1.07919311523437500000e+000) (29, 1.58800005912780760000e-001) (30, -1.10281137749552730000e-002) (31, 4.80042845010757450000e-001) (32, -1.86636075377464290000e-002) (33, -9.76058915257453920000e-002) (34, 2.53664225339889530000e-001) (35, 1.01965951919555660000e+000) (36, 3.11573624610900880000e-001) (37, 3.67933481931686400000e-001) (38, 7.77293276041746140000e-003) (39, -9.46618616580963130000e-001) (40, -1.20379590988159180000e+000) (41, -1.10251661390066150000e-002) (42, -1.11614322662353520000e+000) (43, 3.11571769416332240000e-002) (44, 4.34801690280437470000e-002) (45, 1.47047601640224460000e-002) (46, 6.04409836232662200000e-002) (47, -7.54179880023002620000e-002) (48, -1.20517805218696590000e-001) (49, -2.03847996890544890000e-002) (0, 7.89428725838661190000e-002) (1, 1.62701261043548580000e+000) (2, -1.21126043796539310000e+000) (3, 1.76413416862487790000e+000) (4, 1.80213475227355960000e+000) (5, 1.65787196159362790000e+000) (6, 1.74894249439239500000e+000) (7, 1.69843590259552000000e+000) (8, -7.60262459516525270000e-002) (9, 1.23648680746555330000e-002) (10, 2.59181223809719090000e-002) (11, 2.44948506355285640000e-001) (12, 2.47003182768821720000e-001) (13, 2.65448987483978270000e-001) (14, -4.18397814035415650000e-001) (15, -3.45311760902404790000e-002) (16, 3.67846667766571040000e-001) (17, 2.33697533607482910000e-001) (18, 4.61515128612518310000e-001) (19, 5.82798302173614500000e-001) (20, 3.41150850057601930000e-001) (21, -3.85640233755111690000e-001) (22, -7.44036510586738590000e-002) (23, 2.17462167143821720000e-001) (24, 1.84635490179061890000e-001) (25, 2.94873028993606570000e-001) (26, 2.82232642173767090000e-001) (27, 3.41108143329620360000e-001) (28, -2.88533300161361690000e-001) (29, -1.08783811330795290000e-001) (30, -5.42622841894626620000e-002) (31, -4.45204466581344600000e-001) (32, 7.46073573827743530000e-002) (33, 4.20424416661262510000e-002) (34, -2.20837771892547610000e-001) (35, -3.00569444894790650000e-001) (36, -1.22911930084228520000e+000) (37, -1.08536326885223390000e+000) (38, 7.79135525226593020000e-002) (39, 2.60764986276626590000e-001) (40, 5.54683923721313480000e-001) (41, 2.90717512369155880000e-001) (42, 1.60749971866607670000e+000) (43, -8.65120813250541690000e-002) (44, -1.04230590164661410000e-001) (45, 1.13692790269851680000e-001) (46, 1.86110615730285640000e-001) (47, 2.54711925983428960000e-001) (48, 3.14863026142120360000e-001) (49, -2.33052559196949010000e-002) (0, -2.90405284613370900000e-002) (1, -1.22093451023101810000e+000) (2, -1.57371342182159420000e-001) (3, -1.26731514930725100000e+000) (4, -1.22058665752410890000e+000) (5, -1.08895814418792720000e+000) (6, -1.21071112155914310000e+000) (7, -1.23055362701416020000e+000) (8, 5.37132248282432560000e-002) (9, 5.27634508907794950000e-002) (10, 8.82170442491769790000e-003) (11, -1.61649808287620540000e-002) (12, 2.18542926013469700000e-002) (13, -1.09494578838348390000e+000) (14, -3.38809162378311160000e-001) (15, -3.10012787580490110000e-001) (16, 2.24940463900566100000e-001) (17, 2.48380899429321290000e-001) (18, 2.54653245210647580000e-001) (19, -1.99566781520843510000e-001) (20, -1.26036322116851810000e+000) (21, -1.67642220854759220000e-001) (22, -3.31741303205490110000e-001) (23, 1.05229660868644710000e-001) (24, 7.83981323242187500000e-001) (25, -1.25230050086975100000e+000) (26, -1.23144483566284180000e+000) (27, -1.24038636684417720000e+000) (28, -2.38125607371330260000e-001) (29, 1.67665883898735050000e-001) (30, 4.36742603778839110000e-002) (31, -2.43576124310493470000e-001) (32, 6.92381560802459720000e-002) (33, 1.74056851863861080000e+000) (34, -2.63803064823150630000e-001) (35, -3.20004224777221680000e-001) (36, 1.75032198429107670000e+000) (37, 1.74484097957611080000e+000) (38, 1.67486417293548580000e+000) (39, 1.61580657958984370000e+000) (40, 1.87526762485504150000e-001) (41, -1.23430728912353520000e+000) (42, -1.27905225753784180000e+000) (43, -5.30776614323258400000e-003) (44, 3.05954739451408390000e-002) (45, 1.14156976342201230000e-002) (46, 5.26399575173854830000e-002) (47, 3.10767032206058500000e-002) (48, -1.20578563213348390000e+000) (49, 4.69110673293471340000e-003) (0, 7.54028335213661190000e-002) (1, 1.78961026668548580000e+000) (2, 9.32966768741607670000e-002) (3, 1.70817101001739500000e+000) (4, 1.63163912296295170000e+000) (5, 1.61924898624420170000e+000) (6, 1.61083221435546880000e+000) (7, 1.78757166862487790000e+000) (8, -2.82536655664443970000e-001) (9, -1.66820108890533450000e-001) (10, -1.93937439471483230000e-002) (11, -3.21225970983505250000e-002) (12, -3.96911464631557460000e-002) (13, 1.65288925170898440000e-001) (14, 3.16662400960922240000e-001) (15, 3.13849121332168580000e-001) (16, -1.80252283811569210000e-001) (17, -2.24183470010757450000e-001) (18, -2.61071443557739260000e-001) (19, 9.88660901784896850000e-002) (20, 1.23529505729675290000e+000) (21, 2.80779838562011720000e-001) (22, 1.56881436705589290000e-001) (23, -1.69624745845794680000e-001) (24, -3.24122309684753420000e-001) (25, 1.22125697135925290000e+000) (26, 1.52709588408470150000e-001) (27, 1.37008500099182130000e+000) (28, 2.45110914111137390000e-001) (29, -2.05845981836318970000e-001) (30, -3.69010597467422490000e-001) (31, 3.54161262512207030000e-002) (32, -3.19346278905868530000e-001) (33, -6.60716891288757320000e-001) (34, 1.85179933905601500000e-001) (35, 3.50042521953582760000e-001) (36, -1.10945379734039310000e+000) (37, -7.54503130912780760000e-001) (38, -6.12493038177490230000e-001) (39, -3.23750138282775880000e-001) (40, -1.81939318776130680000e-001) (41, 1.36638021469116210000e+000) (42, 1.80152440071105960000e+000) (43, -1.43944129347801210000e-001) (44, -3.20311307907104490000e-001) (45, -5.65702617168426510000e-002) (46, 4.91354055702686310000e-003) (47, 7.51159787178039550000e-002) (48, 2.40101039409637450000e-001) (49, -3.46262782812118530000e-001) (0, 6.95495605468750000000e-002) (1, -1.12629950046539310000e+000) (2, 1.78092491626739500000e+000) (3, -1.15897774696350100000e+000) (4, -1.17438912391662600000e+000) (5, -1.25324654579162600000e+000) (6, -1.10441839694976810000e+000) (7, -1.19871771335601810000e+000) (8, 2.80639648437500000000e-001) (9, 1.73083499073982240000e-001) (10, -5.18860481679439540000e-002) (11, 2.95556299388408660000e-002) (12, -1.48334458470344540000e-001) (13, -9.69036877155303960000e-001) (14, -1.21419094502925870000e-001) (15, -1.50347024202346800000e-001) (16, -2.70580966025590900000e-003) (17, -1.20552472770214080000e-001) (18, -1.09145450592041020000e+000) (19, -1.09316956996917720000e+000) (20, -8.31237733364105220000e-001) (21, 2.72869504988193510000e-002) (22, -1.44866466522216800000e-001) (23, -9.45483148097991940000e-002) (24, 1.47089152596890930000e-003) (25, -8.10839831829071040000e-001) (26, -9.56494152545928960000e-001) (27, -1.26241397857666020000e+000) (28, -4.83294911682605740000e-002) (29, 1.61175549030303960000e-001) (30, 2.19950467348098750000e-001) (31, 5.13973474502563480000e-001) (32, 7.83172994852066040000e-002) (33, 2.87425160408020020000e-001) (34, 4.58931475877761840000e-002) (35, 5.77973201870918270000e-004) (36, 1.74404752254486080000e+000) (37, 1.65168309211730960000e+000) (38, 2.16973081231117250000e-001) (39, 2.04825215041637420000e-002) (40, -1.15131175518035890000e+000) (41, -8.90734851360321040000e-001) (42, -1.19446361064910890000e+000) (43, 1.86987310647964480000e-001) (44, 1.98004141449928280000e-001) (45, 3.76708433032035830000e-002) (46, -2.06335783004760740000e-002) (47, -8.74763131141662600000e-002) (48, -8.79650890827178960000e-001) (49, 1.06510534882545470000e-001) (0, 7.37731978297233580000e-002) (1, 1.69375455379486080000e+000) (2, -1.18005931377410890000e+000) (3, 1.62078094482421870000e+000) (4, 1.64784395694732670000e+000) (5, 1.67452847957611080000e+000) (6, 1.63524627685546880000e+000) (7, 1.63774263858795170000e+000) (8, -2.91375756263732910000e-001) (9, -1.58013924956321720000e-001) (10, 2.52893269062042240000e-002) (11, 7.01013505458831790000e-002) (12, 9.92611497640609740000e-002) (13, 2.14337497949600220000e-001) (14, -1.24434149265289310000e+000) (15, 6.74501210451126100000e-002) (16, 1.16747431457042690000e-001) (17, 2.62487173080444340000e-001) (18, 1.69132530689239500000e+000) (19, 1.80211639404296870000e+000) (20, 2.48560905456542970000e-001) (21, -1.24949288368225100000e+000) (22, -1.88536047935485840000e-002) (23, 9.31329354643821720000e-002) (24, 1.18841223418712620000e-001) (25, 1.28553211688995360000e-001) (26, 1.79944202303886410000e-001) (27, 1.62938082218170170000e+000) (28, -1.25093328952789310000e+000) (29, -3.11920166015625000000e-001) (30, 3.90057489275932310000e-002) (31, -1.19498848915100100000e+000) (32, 4.31622415781021120000e-002) (33, -1.59410998225212100000e-001) (34, -9.66497719287872310000e-001) (35, -1.24365794658660890000e+000) (36, -1.20928895473480220000e+000) (37, -1.16049754619598390000e+000) (38, 8.78030247986316680000e-003) (39, 1.77933192253112790000e+000) (40, 1.75864708423614500000e+000) (41, 1.83296009898185730000e-001) (42, 1.71913909912109370000e+000) (43, -1.87158226966857910000e-001) (44, -1.85748308897018430000e-001) (45, -3.67956310510635380000e-002) (46, 6.38696551322937010000e-002) (47, 8.07308703660964970000e-002) (48, 1.25885397195816040000e-001) (49, -1.28987431526184080000e-001) (0, -2.14538574218750000000e-002) (1, -1.14407908916473390000e+000) (2, -3.78574468195438390000e-002) (3, -1.13021183013916020000e+000) (4, -1.27849066257476810000e+000) (5, -1.21844434738159180000e+000) (6, -1.18372142314910890000e+000) (7, -1.21381783485412600000e+000) (8, 6.45443275570869450000e-002) (9, 1.17844328284263610000e-001) (10, 9.69759747385978700000e-002) (11, -5.19394055008888240000e-002) (12, -1.54831400141119960000e-002) (13, -1.21805369853973390000e+000) (14, -2.73988634347915650000e-001) (15, -3.93666356801986690000e-001) (16, 3.80277708172798160000e-002) (17, 3.47438663244247440000e-001) (18, 2.65239685773849490000e-001) (19, -3.73745322227478030000e-001) (20, -1.20694530010223390000e+000) (21, -3.22835057973861690000e-001) (22, -4.43397790193557740000e-001) (23, 4.70867380499839780000e-003) (24, 7.93691992759704590000e-001) (25, -1.22003126144409180000e+000) (26, -1.22106885910034180000e+000) (27, -1.26732122898101810000e+000) (28, -4.53157335519790650000e-001) (29, -8.87485407292842860000e-003) (30, 5.99550642073154450000e-002) (31, -2.46513746678829190000e-002) (32, 4.97988164424896240000e-002) (33, 1.70268404483795170000e+000) (34, -3.83240729570388790000e-001) (35, -3.72810631990432740000e-001) (36, 1.77163541316986080000e+000) (37, 1.79653775691986080000e+000) (38, 1.80176854133605960000e+000) (39, 1.70243370532989500000e+000) (40, 3.35189729928970340000e-001) (41, -1.18411207199096680000e+000) (42, -1.22337591648101810000e+000) (43, 1.78643465042114260000e-001) (44, 5.96045814454555510000e-002) (45, 9.85201671719551090000e-002) (46, 1.25874310731887820000e-001) (47, 1.47292772307991980000e-002) (48, -1.23273873329162600000e+000) (49, 6.75682816654443740000e-003) (0, -8.83789062500000000000e-002) (1, 6.28043532371521000000e-001) (2, 1.69362020492553710000e+000) (3, 6.56229555606842040000e-001) (4, 5.89786708354949950000e-001) (5, 5.26798486709594730000e-001) (6, 6.77994668483734130000e-001) (7, 2.03148409724235530000e-001) (8, 1.44572019577026370000e-001) (9, 3.23508769273757930000e-001) (10, 2.78653264045715330000e-001) (11, 1.75577074289321900000e-001) (12, -1.89802469685673710000e-003) (13, 9.21382308006286620000e-002) (14, 1.74557948112487790000e+000) (15, 3.95753294229507450000e-001) (16, -6.65703535079956050000e-001) (17, -1.14229071140289310000e+000) (18, -1.09349918365478520000e+000) (19, -1.21337842941284180000e+000) (20, 1.90563514828681950000e-001) (21, 1.76479339599609380000e+000) (22, 4.52546477317810060000e-001) (23, -6.53142452239990230000e-001) (24, -5.44925630092620850000e-001) (25, 1.38273179531097410000e-001) (26, 6.14375472068786620000e-002) (27, 2.56720721721649170000e-001) (28, 1.67874598503112790000e+000) (29, 3.31876724958419800000e-001) (30, 1.06479197740554810000e-001) (31, 5.64626574516296390000e-001) (32, 1.95364683866500850000e-001) (33, -1.64206415414810180000e-001) (34, 6.57427072525024410000e-001) (35, 1.66186976432800290000e+000) (36, 2.26865708827972410000e-001) (37, 3.36872696876525880000e-001) (38, -1.06146968901157380000e-002) (39, -1.23973941802978520000e+000) (40, -1.26851749420166020000e+000) (41, 3.94099615514278410000e-002) (42, -1.22107493877410890000e+000) (43, 2.93314695358276370000e-001) (44, 2.30399638414382930000e-001) (45, 2.53445744514465330000e-001) (46, 2.00467228889465330000e-001) (47, 6.86586201190948490000e-002) (48, 1.65569618344306950000e-001) (49, 9.62130725383758540000e-002) (0, 6.34582564234733580000e-002) (1, -5.18237113952636720000e-001) (2, -1.17351019382476810000e+000) (3, -4.03124868869781490000e-001) (4, -3.68267685174942020000e-001) (5, -4.89941209554672240000e-001) (6, -4.14733737707138060000e-001) (7, -3.71741205453872680000e-001) (8, -2.13865771889686580000e-001) (9, -3.10246378183364870000e-001) (10, -3.75067889690399170000e-002) (11, -9.40920859575271610000e-002) (12, 4.75881621241569520000e-002) (13, -3.53783786296844480000e-001) (14, -1.25796449184417720000e+000) (15, -3.10534119606018070000e-001) (16, 2.76854902505874630000e-001) (17, 1.67494964599609370000e+000) (18, 1.61545252799987790000e+000) (19, 1.24328084290027620000e-001) (20, -4.07207846641540530000e-001) (21, -1.21934759616851810000e+000) (22, -3.46502125263214110000e-001) (23, 1.00268021225929260000e-001) (24, 1.55874088406562810000e-001) (25, -3.15856516361236570000e-001) (26, -3.03582400083541870000e-001) (27, -7.58720636367797850000e-001) (28, -1.17698311805725100000e+000) (29, -2.93010056018829350000e-001) (30, -1.36007547378540040000e-001) (31, -4.41674232482910160000e-001) (32, -4.10917848348617550000e-002) (33, 3.63666504621505740000e-001) (34, -5.89378654956817630000e-001) (35, -1.27527415752410890000e+000) (36, -3.04278194904327390000e-001) (37, -2.47539907693862920000e-001) (38, 1.12935908138751980000e-001) (39, 1.71909630298614500000e+000) (40, 1.74634850025177000000e+000) (41, -2.10607528686523440000e-001) (42, 2.77318775653839110000e-001) (43, -3.46983432769775390000e-001) (44, -3.16020280122756960000e-001) (45, -1.80182643234729770000e-002) (46, -1.95742659270763400000e-002) (47, -9.36044603586196900000e-002) (48, -3.21349680423736570000e-001) (49, -1.21444568037986760000e-001) (0, 2.98339854925870900000e-002) (1, 2.43919476866722110000e-001) (2, 1.69881439208984370000e+000) (3, 2.17808619141578670000e-001) (4, 2.04533442854881290000e-001) (5, 1.28941431641578670000e-001) (6, 1.63224890828132630000e-001) (7, -1.47180914878845210000e-001) (8, 2.65545397996902470000e-002) (9, -2.73272991180419920000e-002) (10, -1.65195658802986150000e-001) (11, -1.15281112492084500000e-001) (12, -1.00857242941856380000e-001) (13, -2.42759153246879580000e-001) (14, 6.60768270492553710000e-001) (15, 1.38481914997100830000e-001) (16, -1.46422147750854490000e-001) (17, -2.62119740247726440000e-001) (18, -1.25438177585601810000e+000) (19, -4.96564149856567380000e-001) (20, -3.00591677427291870000e-001) (21, 5.20851314067840580000e-001) (22, 8.78166332840919490000e-002) (23, -2.17863813042640690000e-001) (24, -3.20164829492568970000e-001) (25, -9.33809131383895870000e-002) (26, -2.47403934597969060000e-001) (27, -3.23459953069686890000e-002) (28, 6.27082943916320800000e-001) (29, -5.03802746534347530000e-002) (30, -1.00473992526531220000e-001) (31, 4.81599241495132450000e-001) (32, -1.61203965544700620000e-001) (33, -2.18985021114349370000e-001) (34, 4.17292207479476930000e-001) (35, 6.93586826324462890000e-001) (36, 4.63648796081542970000e-001) (37, 6.82920277118682860000e-001) (38, -2.11202707141637800000e-002) (39, -7.06627488136291500000e-001) (40, -1.13702952861785890000e+000) (41, -2.99090206623077390000e-001) (42, -1.24833929538726810000e+000) (43, 5.54729998111724850000e-002) (44, -7.80826015397906300000e-003) (45, -1.17496691644191740000e-001) (46, -1.52433231472969060000e-001) (47, -2.81295448541641240000e-001) (48, -3.57708334922790530000e-001) (49, -8.45132991671562190000e-002) (0, 7.49450698494911190000e-002) (1, 1.76606905460357670000e+000) (2, -1.27661693096160890000e+000) (3, 1.70576632022857670000e+000) (4, 1.73761439323425290000e+000) (5, 1.77907562255859370000e+000) (6, 1.77601778507232670000e+000) (7, 1.72420501708984380000e+000) (8, -2.26683259010314940000e-001) (9, -2.08952546119689940000e-001) (10, 8.63696821033954620000e-003) (11, -3.96225415170192720000e-003) (12, 9.51897501945495610000e-002) (13, 5.14805130660533910000e-002) (14, -1.17497503757476810000e+000) (15, 6.98328837752342220000e-002) (16, 2.19311296939849850000e-001) (17, 1.88006386160850520000e-001) (18, 1.65953826904296870000e+000) (19, 1.63255465030670170000e+000) (20, 2.13260218501091000000e-001) (21, -1.13272655010223390000e+000) (22, -8.54839012026786800000e-002) (23, 2.73510545492172240000e-001) (24, 1.41521543264389040000e-001) (25, 9.70524400472640990000e-002) (26, 5.14347627758979800000e-002) (27, 1.65478968620300290000e+000) (28, -1.17980289459228520000e+000) (29, -9.89305749535560610000e-002) (30, -1.11382015049457550000e-001) (31, -1.15600538253784180000e+000) (32, -1.55363976955413820000e-001) (33, -1.35736599564552310000e-001) (34, -5.07311642169952390000e-001) (35, -1.10984444618225100000e+000) (36, -1.20377147197723390000e+000) (37, -1.26488590240478520000e+000) (38, -4.75529991090297700000e-002) (39, 1.64982151985168460000e+000) (40, 1.74531710147857670000e+000) (41, 2.20517292618751530000e-001) (42, 1.60322725772857670000e+000) (43, -2.34758228063583370000e-001) (44, -7.82152339816093440000e-002) (45, 1.65349207818508150000e-002) (46, 1.13121472299098970000e-001) (47, 1.98265910148620610000e-001) (48, 2.49283269047737120000e-001) (49, -7.60670825839042660000e-002) (0, 9.02954116463661190000e-002) (1, 1.79297327995300290000e+000) (2, 3.68267625570297240000e-001) (3, 1.62037813663482670000e+000) (4, 1.74631798267364500000e+000) (5, 1.77288055419921880000e+000) (6, 1.70221400260925290000e+000) (7, 3.09502899646759030000e-001) (8, -3.59701849520206450000e-002) (9, -5.02096898853778840000e-002) (10, 1.04798175394535060000e-001) (11, 9.29035805165767670000e-003) (12, -6.24747723340988160000e-002) (13, 6.88324794173240660000e-002) (14, 4.75705027580261230000e-001) (15, 1.64728954434394840000e-001) (16, 1.15290120244026180000e-001) (17, -6.38236552476882930000e-002) (18, -2.59168837219476700000e-002) (19, 9.12422686815261840000e-002) (20, 1.64851084351539610000e-001) (21, 4.03311252593994140000e-001) (22, 7.96346962451934810000e-002) (23, 7.86812379956245420000e-002) (24, 4.13826406002044680000e-002) (25, 1.76637738943099980000e-001) (26, 7.04916287213563920000e-003) (27, 8.98716226220130920000e-002) (28, 3.97848606109619140000e-001) (29, -2.94516272842884060000e-002) (30, -5.94108104705810550000e-002) (31, 2.64412406831979750000e-002) (32, 1.16480305790901180000e-001) (33, -2.64723021537065510000e-002) (34, 2.00988844037055970000e-001) (35, 4.11911129951477050000e-001) (36, -2.07766406238079070000e-002) (37, 1.38887405395507810000e-001) (38, 1.01413220167160030000e-001) (39, -4.60401624441146850000e-002) (40, 9.60618853569030760000e-002) (41, 1.37745380401611330000e-001) (42, 1.70662365853786470000e-002) (43, 8.31399410963058470000e-002) (44, 8.25967267155647280000e-002) (45, -4.36210110783576970000e-002) (46, 4.33174520730972290000e-002) (47, -4.71732616424560550000e-002) (48, 1.19723595678806300000e-001) (49, -6.39567617326974870000e-003) (0, -4.96826171875000000000e-002) (1, -1.22499942779541020000e+000) (2, 1.72900235652923580000e+000) (3, -1.20759224891662600000e+000) (4, -1.27012276649475100000e+000) (5, -1.27729439735412600000e+000) (6, -1.19070994853973390000e+000) (7, -1.18795108795166020000e+000) (8, 2.84980446100234990000e-001) (9, 3.93397152423858640000e-001) (10, -7.28637501597404480000e-002) (11, -7.83981606364250180000e-002) (12, -4.43808764219284060000e-001) (13, -4.33830857276916500000e-001) (14, -3.21310669183731080000e-001) (15, -5.10045468807220460000e-001) (16, 1.09590413048863410000e-002) (17, 2.16056611388921740000e-002) (18, -5.36588728427886960000e-002) (19, -8.90728771686553960000e-001) (20, -4.43492710590362550000e-001) (21, -2.85116791725158690000e-001) (22, -5.34654915332794190000e-001) (23, -2.04530373215675350000e-001) (24, 1.22727856040000920000e-001) (25, -5.23210823535919190000e-001) (26, -5.89250743389129640000e-001) (27, -9.52239930629730220000e-001) (28, -2.43905887007713320000e-001) (29, 2.71070539951324460000e-001) (30, 6.37213811278343200000e-002) (31, 4.67164665460586550000e-002) (32, 3.90652380883693700000e-002) (33, 1.13035094738006590000e+000) (34, -2.87048399448394780000e-001) (35, -2.50528216361999510000e-001) (36, 1.13962829113006590000e+000) (37, 1.10194516181945800000e+000) (38, 1.13987243175506590000e+000) (39, 5.03199219703674320000e-001) (40, -1.37730479240417480000e-001) (41, -6.03471934795379640000e-001) (42, -9.63482677936553960000e-001) (43, 4.53034609556198120000e-001) (44, 2.94495820999145510000e-001) (45, -1.14520244300365450000e-001) (46, -7.06589072942733760000e-002) (47, -4.18350964784622190000e-001) (48, -4.47148740291595460000e-001) (49, 1.59369602799415590000e-001) (0, 6.90002441406250000000e-002) (1, 4.17126268148422240000e-001) (2, 1.65684664249420170000e+000) (3, 3.96313250064849850000e-001) (4, 2.61352360248565670000e-001) (5, 3.37957561016082760000e-001) (6, 3.51080119609832760000e-001) (7, -6.63806917145848270000e-003) (8, 2.64198154211044310000e-001) (9, 2.19624161720275880000e-001) (10, 3.13569866120815280000e-002) (11, -1.64541061967611310000e-002) (12, 1.87781266868114470000e-002) (13, 1.94940809160470960000e-002) (14, 1.54858708381652830000e+000) (15, 1.03013783693313600000e-001) (16, -6.65770649909973140000e-001) (17, -5.36266207695007320000e-001) (18, -1.12429761886596680000e+000) (19, -1.08334910869598390000e+000) (20, -5.82940177991986270000e-003) (21, 1.50931704044342040000e+000) (22, 3.40647846460342410000e-002) (23, -6.38097286224365230000e-001) (24, -4.06573951244354250000e-001) (25, 3.56206893920898440000e-002) (26, 8.93728435039520260000e-002) (27, -4.20662984251976010000e-002) (28, 1.56175231933593750000e+000) (29, 1.84120029211044310000e-001) (30, -6.63907751441001890000e-002) (31, 4.86539483070373540000e-001) (32, -3.74784171581268310000e-002) (33, -5.09552694857120510000e-002) (34, 1.46824038028717040000e+000) (35, 1.46372985839843750000e+000) (36, 4.07700955867767330000e-001) (37, 3.01853835582733150000e-001) (38, -6.66755512356758120000e-002) (39, -1.12990057468414310000e+000) (40, -1.15040838718414310000e+000) (41, -8.26162323355674740000e-002) (42, -1.15806829929351810000e+000) (43, 1.87660068273544310000e-001) (44, 3.05872946977615360000e-001) (45, 4.34114336967468260000e-002) (46, -8.72304663062095640000e-002) (47, -9.85497608780860900000e-002) (48, -3.90386283397674560000e-002) (49, -6.59696310758590700000e-002) (0, 6.85424804687500000000e-002) (1, -1.26848089694976810000e+000) (2, 1.63721156120300290000e+000) (3, -1.19951117038726810000e+000) (4, -1.09053289890289310000e+000) (5, -1.23339176177978520000e+000) (6, -1.25288033485412600000e+000) (7, -1.26281070709228520000e+000) (8, 4.44902718067169190000e-001) (9, 3.84111702442169190000e-001) (10, 1.04317560791969300000e-001) (11, -1.08767449855804440000e-001) (12, -1.71492137014865880000e-002) (13, -5.72510242462158200000e-001) (14, -3.66841793060302730000e-001) (15, 